3857 100
， -0.205915 0.397865 -0.191975 -0.193020 0.054472 0.381191 0.352629 -0.025726 -0.313490 0.393327 -0.296133 0.309657 0.489116 -0.348515 -0.304145 -0.061178 0.283767 0.082429 -0.545905 -0.018026 -0.214450 -0.286744 -0.377198 -0.109907 0.245695 -0.417297 0.375661 -0.331998 0.276179 0.014015 0.359337 -0.229459 -0.019883 -0.057732 -0.525751 -0.099606 0.464158 -0.068074 -0.201497 0.046923 -1.123026 -0.198951 0.523226 -0.232113 -0.518966 0.233550 -0.061982 0.015697 -0.891996 0.083422 0.125041 0.437506 0.150823 -0.103305 0.180709 -0.699083 -0.414439 -0.235741 -0.142412 -0.114028 -0.707917 0.001119 0.412461 0.005969 0.004891 -0.644742 -0.702125 0.446776 -0.042587 -0.524964 0.028955 0.023486 -0.136346 0.495423 0.117826 0.695361 -0.050012 0.074831 0.202872 -0.212470 0.138920 -0.198394 0.396626 0.341678 1.158329 0.395251 0.051583 -0.407037 0.720245 0.419755 -0.138212 -0.185865 -0.457688 -0.169573 0.270154 0.011690 0.195690 -0.593210 0.219656 -0.469168
的 -0.286946 0.560418 -0.177938 -0.187554 0.034755 0.194777 0.317646 0.120096 -0.162455 0.428046 0.030450 0.798294 0.017923 -0.302798 -0.376876 0.117815 0.129694 0.240024 -0.572212 0.129265 -0.046496 0.169658 -0.152716 -0.091432 0.505566 -0.112108 0.040620 -0.220641 0.103685 0.058602 0.361647 0.144658 -0.393538 -0.001847 -0.268690 0.002789 0.470887 0.008492 -0.492771 0.053549 -0.853497 0.199174 0.310889 -0.371632 -0.206806 0.135256 0.051927 0.112408 -0.760618 0.154562 -0.195156 0.376324 -0.038706 -0.310717 0.422756 -0.626532 -0.579082 -0.433369 0.028862 0.078691 -1.155721 0.163279 0.303382 0.194123 -0.100115 -0.507301 -0.937314 0.436981 -0.226994 -0.614690 -0.274840 -0.011967 -0.004637 0.690133 0.205116 0.713512 0.111248 -0.083471 0.123071 -0.075553 -0.128301 -0.276798 0.246252 -0.000293 1.117626 0.368432 0.060264 -0.517997 0.618186 0.595248 -0.124819 0.049125 -0.117250 -0.359542 -0.003391 -0.113769 0.150748 -0.877084 0.012459 -0.507205
。 -0.156609 0.272167 -0.166318 -0.126365 -0.120178 0.269104 0.245106 -0.160569 -0.415364 0.266839 0.183876 0.383519 0.366019 -0.138461 -0.198972 0.026123 0.007896 0.230865 -0.421340 0.189306 -0.245157 0.069109 -0.255487 -0.032167 0.281016 -0.364719 0.137549 -0.376614 0.275276 0.275930 0.344517 0.190853 -0.191782 -0.020226 -0.409404 -0.127737 0.658032 -0.160627 -0.199960 -0.007099 -1.069649 0.101890 0.486101 -0.147965 -0.271425 -0.169099 -0.164546 0.173499 -0.751128 0.177215 0.020147 0.260730 0.120088 -0.150793 0.194420 -0.583383 -0.364375 -0.289110 0.200370 0.167276 -0.463622 -0.280117 0.329789 -0.146759 0.095127 -0.473493 -0.839453 0.387225 -0.218968 -0.690181 0.051877 -0.003057 0.188721 0.563516 -0.042424 0.315399 0.129872 0.134827 -0.081041 -0.081839 0.017524 -0.596242 -0.101485 0.203472 1.222045 0.344821 0.190253 -0.081319 0.539604 0.236654 -0.127375 -0.217823 -0.530124 -0.152645 0.267638 0.300655 0.190924 -0.967553 0.057155 -0.446374
、 -0.010690 0.473107 -0.361907 -0.245025 -0.316192 -0.396902 0.563899 -0.075505 0.560638 -0.191247 0.319361 0.301544 -0.512556 0.378769 -0.750584 0.175445 0.134701 -0.371738 -0.718061 -0.027685 0.498865 0.100072 -0.548017 -0.001304 0.004390 0.229959 0.052247 0.520033 0.036763 1.068670 0.423110 0.832880 -0.117940 0.153518 -0.009062 -0.575633 0.810166 -0.209394 0.475974 0.334630 -0.429228 -0.166231 0.406258 -0.078120 0.129798 -1.012623 -0.132813 -0.608234 -1.137409 0.212145 0.305477 0.126305 0.214143 -0.497208 1.048414 -0.323575 -0.251659 -0.691501 -0.007894 -0.252793 0.127449 0.036113 -0.169478 0.438512 -0.255472 -0.483046 -1.039787 -0.490644 -0.088807 0.145396 -0.139094 -0.103118 -0.167589 0.097535 -0.624397 1.048796 0.285921 0.172150 0.583048 -1.001831 0.106113 -0.196503 0.327807 -0.791531 0.281996 0.503231 -0.284359 0.062342 -0.006873 0.310295 -0.217007 0.340568 -0.045420 0.020128 -0.585320 -0.428554 -0.413357 -0.877729 0.268360 -0.112376
国 0.112481 0.401072 -0.699409 0.096474 0.203029 0.196811 -0.038914 0.318040 -0.611777 -0.135955 0.036031 0.200730 0.242534 -0.059886 -0.066368 0.206706 0.159029 0.223348 -0.292535 -0.456439 0.091170 -0.513585 0.065045 0.117740 -0.006528 -0.485533 0.061483 0.227721 0.504372 -0.054529 0.839576 0.798455 -0.711101 -0.234449 -0.270348 -0.451007 0.623731 -0.371401 0.074475 -0.051604 -1.293896 0.089417 0.601758 0.004653 0.615638 -0.541234 0.726574 -0.815672 -0.890417 0.177423 -0.626909 0.511181 0.508337 -0.232172 0.783897 -0.554662 -0.711296 -0.248449 -0.094698 0.315068 -0.515952 -0.497487 0.143105 -0.546561 0.144270 -0.166628 -0.544526 0.059617 0.413950 -0.450093 -0.198150 -0.440918 -0.042856 0.866729 -0.025586 0.836900 0.429526 -0.134310 -0.249692 -0.295834 -0.465197 -0.297616 -0.425714 0.083420 0.936067 0.580328 0.600731 0.176662 -0.456648 0.200086 -0.093235 1.077465 -0.047561 -0.787485 0.139123 0.158563 -0.326833 -1.139301 0.070589 0.147051
一 -0.100952 0.093607 0.378897 -0.474239 0.121967 -0.257844 0.188260 0.377406 -0.359928 0.233552 -0.334425 0.633670 0.423741 -0.546131 0.047693 0.076864 0.397392 -0.072973 -0.500053 0.256333 -0.151976 -0.232655 -0.212718 -0.358166 0.397065 -0.344273 0.156940 0.114206 0.886958 0.263649 0.702072 -0.223432 -0.063413 0.305903 -0.171882 0.039643 0.253575 -0.099943 -0.067789 0.097212 -0.707599 0.351252 0.868036 -0.036418 -0.674713 -0.103024 -0.438655 -0.193297 -0.642223 0.109949 -0.077654 0.368607 0.063990 -0.304766 -0.220845 -0.357830 -0.347262 -0.451099 -0.005740 0.236030 -0.551968 0.174913 0.218652 -0.024011 -0.247311 -0.813546 -0.474711 -0.152227 -0.418838 -0.842119 -0.108352 0.248623 -0.160674 0.204976 0.383747 0.728046 0.350388 0.115737 -0.238689 0.280670 0.403732 -0.682581 0.369365 0.227502 0.997978 0.421759 0.072926 -0.413460 0.763352 0.332647 0.421303 0.096046 -0.929516 -0.134396 0.335204 -0.033019 0.393407 -1.242588 0.219534 -0.246225
在 -0.097645 0.452597 -0.080162 0.293761 -0.169649 -0.003231 -0.309160 -0.130627 -0.475048 -0.133557 -0.065060 0.400353 0.111952 -0.646003 -0.093105 -0.257357 0.280663 0.364449 -0.553074 -0.127764 -0.331695 -0.098695 -0.312514 0.060027 0.234625 -0.482158 0.287940 -0.252233 0.438376 0.146356 0.289453 -0.080128 -0.373274 -0.048628 -0.380836 0.364379 0.392554 -0.093981 -0.024861 -0.085306 -0.500756 -0.116136 0.582163 -0.202971 -0.448817 0.031371 -0.272580 -0.339264 -0.663169 0.308213 -0.114353 0.353933 0.553951 0.013592 -0.134981 -0.891387 -0.615272 -0.271061 0.298466 0.128895 -0.671101 -0.046263 0.486285 -0.250814 0.098108 -0.369148 -0.532958 0.579284 0.327994 -0.669891 0.035999 0.158350 -0.083800 0.333184 -0.206547 0.722474 0.227464 0.039188 0.075437 -0.028898 -0.167132 -0.466285 -0.221807 0.253023 1.041666 0.237104 0.073037 -0.426614 0.136373 0.504529 -0.232978 -0.024435 -0.600213 -0.444815 0.144142 0.455318 -0.127695 -1.053309 0.218723 -0.056415
中 -0.117235 0.117157 -0.743302 0.191391 -0.167280 0.217124 0.205569 0.333489 -0.054858 -0.001239 -0.011714 0.392557 -0.325309 -0.074524 -0.005533 -0.231356 0.480084 0.508338 -0.302233 -0.122330 -0.070204 -0.220318 -0.116484 0.304499 0.278798 -0.265960 0.344251 -0.051890 0.455612 0.142991 0.560002 0.496578 -0.529080 -0.112851 -0.196855 -0.585751 0.670688 -0.142268 0.278132 0.089125 -0.576496 0.076784 0.585922 -0.213801 -0.187172 -0.510838 0.239779 -0.391744 -0.734630 -0.077656 -0.495049 0.601452 0.152862 -0.266977 0.144814 -0.543582 -0.487269 -0.341449 -0.181030 0.236293 -0.825058 -0.473503 -0.202022 -0.624824 0.312253 -0.166132 -0.710277 0.583049 0.076671 -0.492119 0.513946 -0.192792 -0.274230 0.604685 -0.277777 0.745675 0.582880 -0.548843 -0.085297 -0.270229 -0.387123 -0.172706 -0.324621 0.121360 1.049520 0.385465 0.116024 -0.229604 0.399620 0.430123 -0.009704 0.082191 -0.345405 -0.141744 -0.050776 0.213117 -0.067845 -1.002630 0.160317 0.044441
人 -0.082164 0.530715 0.032313 -0.692046 0.186104 -0.078721 0.351722 0.616313 -0.078004 0.079072 -0.210864 0.079471 0.559239 -0.004302 -0.333979 -0.118774 0.441041 0.590014 -0.016323 -0.071175 -0.452027 -0.658166 -0.395235 -0.311835 0.160201 -0.490700 -0.110373 -0.376173 0.679946 0.692886 0.674794 -0.073414 -0.480814 0.220106 -0.310224 0.062525 0.303411 -0.157576 0.714945 0.055755 -1.567992 0.191294 0.275376 -1.102377 -0.312237 -0.029490 -0.145783 -0.099872 -0.647248 0.371961 -0.325210 0.777424 0.242617 -0.480191 0.319331 -0.194967 -0.842516 -0.030970 0.051166 -0.227328 -0.809155 0.147688 -0.160664 0.050146 0.111064 -0.578176 -0.791165 0.298765 0.289913 -0.510229 0.153986 0.381513 0.481708 0.576055 -0.031692 0.319578 0.007988 -0.423431 -0.389686 -0.317604 -0.378467 -1.010330 0.195302 0.024154 0.591756 -0.158729 -0.219385 0.523710 0.497534 0.282368 -0.236224 -0.107863 -0.418113 -0.554806 0.282025 -0.862908 -0.205485 -0.430023 0.098905 -0.135245
１ 0.157903 0.513288 0.155461 -0.097797 -1.216914 0.266131 0.308528 -0.300855 -0.134731 0.271410 0.069106 0.353871 0.824584 -0.032397 -0.727545 -0.401324 -0.291033 -0.352086 0.116933 -0.462471 -0.476216 -0.374982 -0.998914 -0.690334 1.273478 -0.357478 0.084841 -0.564108 0.708370 0.441866 -0.668453 0.660972 -0.476596 -0.519518 -0.608938 0.267002 1.141399 -0.404869 0.000946 -0.281012 -0.758032 -0.525524 0.054975 0.062961 -0.298184 0.327423 -0.018284 0.143759 -0.660878 0.376115 0.193138 -0.416726 -0.096168 -0.317070 0.576302 -0.823919 -0.335206 0.146050 -0.471623 0.895587 0.347730 -1.081050 0.276267 -0.613420 0.257765 -0.525656 -0.701205 0.516558 -0.011986 -0.922347 0.454328 -0.235894 0.011306 0.289693 0.004296 -0.318938 0.786720 0.013623 -0.536391 -0.219095 -0.278171 -0.916482 -0.039467 -0.010834 0.507173 0.347478 -0.051301 0.193918 0.113554 -0.199581 -0.612069 0.270310 -0.722058 -0.015016 -0.190829 0.629033 -0.663304 -1.173013 0.294963 0.255522
了 0.261209 0.555750 0.036814 -0.101847 -0.224973 0.295153 0.426029 -0.265606 -0.649064 0.336697 -0.377528 0.164326 0.371578 -0.408153 -0.201244 0.091774 -0.424256 0.163570 -0.333683 0.476611 -0.314087 -0.394052 0.537982 -0.015423 0.182542 0.069981 0.369430 -0.179878 0.466144 0.307040 0.353064 -0.153052 -0.644710 -0.411422 -0.068185 -0.512931 0.384239 0.317978 -0.325013 0.056750 -0.880287 0.127952 0.544079 -0.680921 0.122931 0.004871 -0.490674 -0.104555 -0.514838 0.116754 0.390429 0.811374 0.189755 -0.285902 -0.349339 -0.583809 -0.327646 0.127797 -0.123227 0.406025 -0.523083 -0.209917 0.381741 0.089618 0.443121 -0.683161 -0.453317 0.251789 0.036557 -0.381494 -0.200433 -0.317195 -0.194138 0.242783 0.109028 0.691957 0.065597 -0.168321 -0.542235 -0.159973 0.064996 -0.771613 0.148808 0.139686 1.205206 0.089230 -0.052015 -0.952549 0.411750 0.130946 -0.176518 -0.141173 -0.496261 0.065414 0.045735 -0.091452 0.157741 -0.854646 0.389374 -0.106073
和 -0.379955 0.881394 0.072758 0.043369 0.222108 0.219580 0.654052 0.314747 -0.155837 0.085993 -0.044106 0.833857 -0.456107 -0.118860 -0.396237 0.266589 0.013158 0.144097 -0.229311 -0.160788 0.090501 0.054366 -0.207661 0.181428 0.507053 0.117299 0.143250 0.032284 -0.173125 0.374003 0.481755 0.591923 -0.533464 0.178472 -0.322943 -0.253546 0.381326 -0.139109 -0.243826 0.339635 -0.304683 -0.206312 0.266367 -0.307159 0.146959 0.073172 0.402178 -0.210398 -1.046419 0.199167 -0.218260 0.692964 0.191470 -0.496329 0.738536 -0.216325 -0.416678 -0.171363 0.162639 -0.045783 -0.205102 -0.137630 0.213150 -0.009576 0.285483 -0.327196 -1.227847 0.250728 -0.173849 0.015225 -0.242440 -0.244812 -0.163265 0.729115 0.113511 0.910958 -0.095436 -0.169946 0.139889 -0.510495 -0.329049 -0.164962 0.254150 -0.118354 0.832295 0.388915 0.016491 -0.340168 0.291793 0.545822 -0.096100 0.322358 -0.176996 -0.324077 -0.087875 -0.139666 -0.413239 -1.072814 0.213633 0.010068
是 -0.021777 0.258928 -0.104402 -0.100147 0.521077 0.347867 0.244873 -0.344621 -0.596808 0.248748 -0.093050 0.187302 0.227936 -0.014073 -0.099637 -0.227901 0.722236 0.610125 -0.231731 -0.230171 -0.376404 -0.326503 -0.223606 -0.309769 0.046667 -0.524074 0.267675 -0.348061 0.415404 0.090605 0.965460 -0.036301 -0.306288 0.002609 -0.548445 0.198580 0.026923 -0.517179 -0.214746 0.033457 -0.915493 -0.027734 0.559835 -0.196055 -0.221532 0.081862 -0.420886 -0.107751 -0.720773 0.092025 0.064285 0.077650 0.094441 -0.160483 0.342264 -0.340455 -0.284464 -0.566942 0.297627 0.018888 -0.943729 -0.093763 0.020245 -0.230546 0.335979 -0.224163 -0.810760 0.082180 -0.216401 -0.840085 -0.099245 0.272829 -0.031900 0.131952 0.278923 0.582140 -0.128331 0.466738 -0.130028 -0.101108 0.283204 -0.400858 0.198016 0.188540 0.723514 0.286224 0.204039 -0.218453 0.422892 0.747943 0.138401 0.056723 -0.084404 -0.000228 0.210133 0.023556 0.584056 -1.034103 0.499751 -0.500655
有 0.145537 0.256609 0.222254 0.172124 0.350609 0.303519 0.393692 -0.252272 0.105880 0.212304 -0.029964 -0.038690 -0.069783 -0.252597 -0.440663 0.013982 0.364078 0.277975 -0.391768 -0.084214 0.009190 -0.387928 -0.189040 -0.470378 0.290703 -0.787113 0.405702 -0.177842 0.103438 0.284252 0.517226 0.239835 -0.671270 0.089664 -0.006798 0.090712 -0.036128 -0.117007 0.146837 0.607092 -1.215162 0.272643 0.549776 -0.544961 -0.212816 0.790225 -0.336455 0.066273 -0.941742 -0.008401 0.418376 0.215249 0.286194 -0.393454 0.234624 -0.744412 -0.561954 -0.543910 0.259398 0.190881 -0.996847 -0.303623 -0.272556 -0.088972 -0.202542 -0.459423 -0.779363 -0.061523 -0.387254 -0.650572 -0.521054 0.030671 0.000478 0.251061 -0.085653 0.467691 0.073388 0.260025 -0.209118 -0.485431 -0.072481 0.335769 0.422403 0.376117 0.729671 0.510843 -0.064433 -0.172072 0.358890 0.532270 0.028316 0.280948 -0.508270 -0.001324 0.407395 0.015336 0.059580 -0.591065 0.105761 -0.025365
年 0.204614 -0.020697 -0.531140 0.350832 -0.505173 -0.190254 0.510721 0.205450 -1.105731 0.219869 0.016746 0.931557 1.063902 -0.370291 -0.637047 -0.518123 -0.067895 0.216858 -0.381945 0.140618 -0.518741 -0.342240 -0.798978 -0.669274 0.239788 -0.365068 -0.418260 -0.196589 0.660677 -0.132522 0.467811 0.627877 0.052320 -0.237750 -0.328850 -0.146694 0.962907 0.057696 -0.058319 -0.050660 -0.919041 0.097999 0.317225 -0.426973 -0.405426 -0.294687 -0.767681 -0.067137 -0.279533 0.192830 0.290999 0.043985 -0.108817 -0.176738 -0.020425 -0.648212 0.002947 -0.512981 -0.820985 0.004662 -0.355228 -0.647140 -0.065712 -0.292657 0.154356 -0.701852 -0.272755 0.527371 0.336039 -0.213778 -0.067177 0.103734 0.118247 0.784235 0.208306 0.215162 0.374406 0.045444 -0.735355 -0.240125 -0.138706 -0.677170 -0.031561 0.262089 1.113772 -0.153044 0.073999 -0.148914 0.479195 0.340036 -0.341370 0.601802 -0.489883 -0.089955 -0.333392 0.612762 0.298780 -1.241141 0.323711 -0.062899
大 0.450485 0.721069 -0.045656 -0.794911 -0.015775 0.027355 0.304539 -0.174719 -0.355464 1.090320 -0.175325 0.016988 0.103184 0.011513 -0.321123 0.497946 0.476769 0.097861 -0.037316 -0.481690 -0.560683 -0.191579 0.011411 -0.152902 -0.333100 -0.223177 0.443104 -0.153758 0.585626 -0.165471 0.714318 0.971502 -0.221019 -0.213190 0.490244 -0.743336 0.561395 0.128735 -0.519554 0.055232 -0.342920 -0.066615 0.488599 -0.502805 -0.083862 -0.064108 0.397921 -0.281563 -0.746280 -0.001006 0.230746 -0.086136 0.768315 0.066748 -0.026081 -0.533784 -0.226664 -0.554912 0.329523 0.514727 -0.578240 -0.438909 0.128387 0.447723 0.211654 -0.347706 -0.634285 0.065398 0.427521 0.069707 -0.494398 0.399401 -0.689371 0.390886 0.698782 1.089062 0.550263 -0.616557 0.031363 -0.681308 -0.004842 -0.275385 -0.255619 0.277841 0.907682 0.491564 0.909941 -0.011495 0.280054 0.861389 -0.019742 0.323106 -0.329107 -0.284756 -0.111055 -0.004423 -0.017323 -1.148201 0.043077 -0.642813
不 -0.321835 0.115202 -0.125789 -0.227393 0.479885 0.099133 0.503401 -0.380481 -0.022491 0.546476 -0.460726 -0.337764 0.287253 0.002071 -0.482802 -0.029022 0.492535 0.490669 -0.703352 0.014971 -0.160125 -0.282103 -0.218754 -0.107713 0.184710 -0.812084 0.763645 -0.751089 0.242788 0.329399 0.609362 -0.344490 -0.269462 -0.299407 -0.895752 0.288228 0.042181 -0.341461 -0.289586 0.423410 -1.747952 0.570571 0.868618 -0.471203 -0.495854 0.359658 -0.481016 0.050783 -0.140633 0.165017 0.390017 0.566763 0.406745 0.231706 0.024676 0.237587 -0.126586 -0.290675 0.058092 -0.187680 -0.614953 0.295618 -0.033517 0.437987 0.133753 -0.199506 -0.904305 -0.146605 0.119073 -0.405931 -0.052879 0.162961 -0.548272 0.180460 0.307165 0.121488 -0.664908 0.486197 -0.485479 -0.213982 0.156718 0.025773 0.401880 0.287603 0.771097 0.609373 0.053918 0.096823 0.213649 0.303591 -0.060275 -0.382648 -0.207632 -0.488212 -0.106261 -0.036515 0.373101 -0.609314 0.292768 -0.393943
０ -0.130592 0.719872 0.334261 0.263462 -1.284575 0.247718 0.077222 0.065619 -0.248020 0.539062 -0.278521 0.800464 0.748541 0.234912 -0.784539 0.164024 -0.263783 -0.672346 -0.253846 -0.890703 -0.508770 -0.290467 -0.808514 -0.710274 1.142173 0.179643 0.025421 -0.591682 0.534632 0.309658 -0.330045 0.254587 -0.374514 -0.075327 -0.198821 0.031792 0.641596 -0.189211 0.007178 -0.279334 -0.974640 -0.711565 -0.020280 -0.170729 -0.078676 0.846030 -0.104615 0.352321 -0.366706 0.707050 0.053927 -0.199707 0.132006 -0.070755 0.579439 -1.420412 -0.314915 -0.380563 0.051403 0.347178 0.211733 -1.057386 0.012960 0.011434 0.185343 -0.934657 -0.692068 0.697650 0.120300 -0.213043 0.721031 -0.425895 -0.080400 0.500447 -0.092338 -0.181591 0.940556 -0.605488 -1.350120 -0.092861 0.263139 -0.751244 0.274180 -0.093820 0.654335 0.133348 -0.494282 -0.083523 -0.053878 -0.110294 -0.652397 0.398704 -0.589472 0.206773 -0.206130 0.241435 -0.334159 -0.211493 0.177396 0.068095
为 -0.387033 0.642291 -0.218332 -0.160690 0.270487 0.315102 0.533581 0.195697 -0.377105 0.105715 0.007814 0.113565 0.030568 0.182240 0.001758 0.171356 0.397724 -0.071404 0.100629 -0.265096 -0.513110 -0.083076 -0.235961 -0.219890 0.690099 -0.393028 0.144125 -0.213753 0.267106 0.080688 0.543306 0.444675 -0.320662 0.054176 -0.454979 -0.357172 0.350359 -0.361078 -0.154954 -0.182197 -0.780945 -0.189108 0.229167 -0.540740 -0.273877 -0.120278 -0.009353 0.014556 -0.692736 -0.111541 -0.103471 0.274335 0.278779 -0.307839 0.273796 -0.579545 -0.421834 -0.141048 0.121618 -0.177677 -0.329542 -0.515079 -0.030961 -0.207505 -0.019224 -0.437542 -1.014957 0.267199 0.025496 -0.525222 -0.039451 -0.209690 -0.177161 -0.227759 -0.114393 0.772494 0.011885 0.133317 -0.155368 -0.377925 -0.097802 -0.475032 -0.213263 0.493250 0.622632 0.086185 -0.239085 -0.050571 0.445963 0.450720 -0.074836 0.281298 0.028737 0.113074 0.291915 0.037693 0.303105 -0.738713 0.050135 -0.084505
会 -0.337593 0.331148 -0.522917 -0.091956 -0.140718 0.548092 -0.029068 0.416113 -0.442785 -0.469253 0.240038 0.358661 0.349792 -0.692431 -0.600740 0.263155 -0.430609 0.389671 -0.434312 0.073721 -0.489530 0.067028 0.377233 0.443556 -0.236526 -0.754555 0.507379 0.357327 0.316134 0.490856 0.473022 0.311245 -0.954223 -0.935364 -0.325477 -0.541414 -0.357385 -0.379311 0.490505 -0.384203 -0.879552 0.168131 0.086435 -0.567991 0.094662 -0.383337 -0.521286 -1.003965 -0.790142 0.111149 -0.045662 0.428107 0.560662 0.475696 -0.145491 -0.518109 -0.459843 -0.199554 0.573648 1.036124 -0.476670 -0.398359 0.274265 -0.286318 0.497345 -0.540095 -0.450629 -0.062824 0.304427 -0.589331 -0.097384 0.339870 -0.052406 0.710484 -0.065356 1.230266 -0.413048 0.040771 -0.269381 -0.503261 -0.543970 -0.511891 0.108193 0.457262 0.761426 0.650586 -0.059513 -0.105261 0.181372 -0.398292 0.314755 -0.025575 -0.654023 -0.407817 0.614135 0.433829 -0.111136 -1.025224 -0.319431 -0.086439
“ -0.512479 0.001813 0.100700 -0.433235 0.443821 -0.384080 -0.173231 -0.169225 -0.650853 0.323414 -0.287692 0.076327 -0.142933 0.101033 -0.074116 -0.011933 0.331009 0.054289 -0.598651 0.253921 -0.443285 0.198850 -0.081786 -0.049833 0.205291 -0.057359 0.117931 -0.736230 0.084502 -0.308864 0.593776 0.078679 0.278558 -0.164777 0.353705 0.080859 0.261397 -0.123328 -0.451692 0.093083 -1.252692 -0.115106 0.597436 -0.433282 0.071407 -0.807711 -0.786803 -0.169266 -0.519361 -0.102190 -0.443137 0.115000 0.194248 -0.306976 0.543814 -0.084612 -0.303306 -0.401536 0.245295 0.209776 -0.017309 -0.359484 -0.337158 -0.433421 0.088385 -0.524420 -0.621355 0.669536 0.012829 -0.946948 -0.050831 0.271068 0.444725 -0.096538 0.932480 0.516665 0.046785 0.589769 -0.134797 -0.579478 0.221739 -0.183962 0.633553 0.008272 0.816512 0.692093 0.308910 -0.042171 0.235790 0.624264 -0.079348 0.234128 -0.647610 0.001762 0.407570 -0.188118 0.347436 -0.478712 0.375766 -0.063589
” -0.476569 0.009081 0.095788 -0.554150 0.220337 -0.246313 -0.186567 -0.297971 -0.648451 0.398288 0.084283 -0.055255 -0.381204 0.204677 -0.105574 0.006449 0.291863 -0.121900 -0.756128 0.279918 -0.386147 0.434390 -0.254777 0.042998 0.105938 0.062875 0.090883 -0.830086 0.033709 -0.084252 0.622370 0.024576 -0.009927 0.017007 0.320631 -0.012014 0.365714 0.036499 -0.340575 0.043279 -1.260670 -0.076750 0.499200 -0.422340 0.150534 -0.890430 -0.835920 0.118029 -0.660882 -0.240669 -0.276435 0.237952 -0.013292 -0.341949 0.541421 -0.273082 -0.177004 -0.382678 0.414649 0.326107 -0.245636 -0.504726 -0.242226 -0.022263 0.219721 -0.535756 -0.781791 0.575214 0.140824 -0.824519 -0.150064 0.155675 0.599721 -0.029253 0.731304 0.299800 0.014649 0.486220 -0.055344 -0.405165 0.289194 -0.192672 0.528605 0.101926 1.024779 0.604218 0.152337 -0.094340 0.394270 0.562224 0.151487 0.264306 -0.488436 0.001645 0.251664 0.010063 0.381504 -0.597571 0.273120 -0.071039
业 0.582595 0.377270 -0.152106 0.527338 -0.136961 0.479488 0.463288 0.514815 -0.636718 0.319972 0.131749 0.031345 -0.649905 -0.111255 -0.396976 0.323758 0.096376 -0.051805 -0.647019 -0.613332 0.138199 -0.386409 -1.425518 0.438020 0.311720 -1.386642 0.154343 -0.347570 0.308420 0.352853 0.299889 -0.007472 -0.319285 -0.037125 0.406115 0.299729 0.591869 -0.139939 -0.404858 0.075692 -0.449485 0.261189 0.838579 -0.781894 -0.462381 0.313843 0.482912 -0.180203 -1.158843 -0.061353 0.173789 -0.029703 -0.362854 -0.328525 -0.067102 -0.384111 -1.000099 -0.387860 -0.044400 -0.185020 -0.304468 -0.893596 -0.776622 -0.076870 0.450702 -0.284349 -0.920121 -0.589124 -0.021720 0.791738 -0.154964 -0.286188 0.022842 -0.163634 -0.145427 1.241376 0.096968 0.506275 -0.232789 -0.531950 -0.302724 -0.797716 0.024460 0.431685 0.782972 0.161739 0.494272 -0.295889 0.255456 0.550450 -0.278639 1.602440 0.176356 0.864789 0.371659 -0.401168 0.001586 -0.677687 -0.163364 -0.507872
上 -0.029991 0.591280 0.535849 0.241866 -0.330928 -0.170907 -0.086325 0.176921 -0.418554 0.032924 -0.009289 -0.034535 0.005302 -0.759112 -0.070100 -0.900138 0.140752 0.239705 -0.789728 -0.145088 -0.229990 -0.275503 -0.343507 -0.170786 0.251800 0.045662 -0.261382 -0.511868 0.679809 0.162646 -0.073178 -0.337241 -0.526686 -0.018860 0.060608 0.162844 0.247614 -0.166487 0.205395 0.131143 -0.940505 -0.612457 0.276901 -0.074842 -0.030096 -0.148311 -0.268305 -0.024468 -0.842167 -0.106319 0.211093 0.441981 0.227736 -0.011931 -0.060998 -1.162548 0.204351 -0.549057 0.318362 0.192478 -0.445501 0.159433 -0.050788 0.026193 0.104031 -0.410948 -0.555903 0.517030 0.459230 -1.135988 -0.262899 -0.109866 -0.068319 0.228844 0.447312 0.890820 -0.176529 -0.114551 0.270266 0.333515 0.479534 -0.259157 0.101185 0.439951 0.914510 0.342001 -0.402861 -0.296629 0.341509 -0.311802 -0.435098 0.282576 -0.424088 0.143397 0.648584 0.594521 -0.389823 -0.816511 0.277840 -0.386984
发 -0.007333 0.336170 -0.163061 0.285057 0.035981 0.081651 0.314935 -0.081742 0.068100 -0.535024 -0.116083 0.056259 -0.452025 -0.682584 -0.165934 0.671857 -0.217623 0.328201 -0.475632 -0.304345 -0.131994 0.049160 0.143704 0.113840 0.680854 -0.996802 0.206111 0.105322 0.150625 0.003689 0.581886 -0.060209 -0.071284 -0.451738 -0.438728 -0.394901 1.001118 -0.000643 0.226513 0.507499 -0.618047 0.459923 0.085922 -0.606392 -0.179470 0.208072 0.095132 -0.268401 -0.365173 0.165652 -0.609106 0.006795 -0.255175 0.192356 -0.251000 -0.255747 -0.929606 -0.401165 -0.055667 0.421573 -0.360516 0.090569 -0.040667 -0.040930 0.140851 -0.769465 -1.063934 -0.009629 -0.248057 -0.218820 -0.058939 -0.614021 0.417518 0.340135 0.307369 0.867714 0.576272 0.092958 0.278883 -0.793355 -0.471691 -0.892713 0.010688 0.109985 0.826434 0.500411 0.663357 -1.404361 0.456413 -0.198416 -0.735388 0.614899 -0.119253 0.289790 -0.008973 0.060660 -0.267114 -0.575940 0.646228 -0.452546
地 -0.114900 0.595905 0.164970 0.112690 0.421987 0.124041 0.858283 -0.045007 0.344414 -0.009614 -0.165562 -0.119206 0.188473 0.046482 -0.291549 -0.192703 0.323989 0.412213 -0.313343 -0.280825 0.040278 -0.781492 -0.561799 0.225010 0.140716 -0.009419 0.171645 0.235523 0.701265 0.309443 0.520030 0.061177 0.348920 -0.194016 -0.234060 -0.486076 0.313142 0.036284 -0.343736 0.874004 -0.592454 0.396173 0.301194 0.039763 -0.333978 0.478340 0.554832 -0.204707 -0.861378 -0.159445 0.208330 0.469954 0.440524 -0.068583 -0.094083 -0.030685 -0.331473 0.148041 0.233186 -0.393929 -0.199543 0.037885 0.341393 0.020906 0.210946 -1.012082 -0.680723 0.513836 0.020539 -0.683465 -0.373779 0.309657 -0.103413 -0.168390 0.721205 0.273421 0.054947 -0.073312 -0.062415 0.178026 -0.357225 0.106101 0.330413 0.184056 0.375755 0.300654 0.262418 -0.901601 0.048169 0.144728 -0.929372 -0.306313 -0.194062 -0.268463 0.524799 0.018066 -0.342574 -0.875310 0.602614 0.075920
９ 0.234422 0.122130 -0.257196 0.486618 -1.203593 0.474020 0.522276 0.089187 -0.769740 0.219034 0.165687 0.407753 0.557578 -0.177983 -0.835322 -0.529529 -0.175864 -0.033620 0.195878 -0.188299 -0.523176 -0.221950 -0.606872 -0.553360 0.865911 -0.171364 -0.268010 -0.255107 0.433556 0.166961 -0.295240 0.343851 -0.174514 -0.637794 -0.273728 -0.081167 0.917525 0.078642 0.198818 -0.449089 -0.918282 -0.343184 -0.037437 -0.229795 -0.108924 0.478568 -0.052173 0.134762 -0.677194 0.497826 0.180291 -0.147271 -0.200961 -0.401777 0.426417 -0.882580 -0.169862 0.092485 -0.771886 0.433989 -0.165230 -1.141202 0.133265 -0.775202 0.434999 -0.439512 -0.478015 0.529415 0.289095 -0.598065 0.356210 -0.538127 0.259590 0.477372 0.211611 -0.483209 0.470132 0.145978 -0.716904 -0.291209 -0.153338 -0.615393 0.093963 0.217307 0.876185 -0.086403 0.006005 0.131233 0.178525 -0.000811 -0.511137 0.620501 -0.521666 0.113385 -0.178686 0.426531 -0.422238 -1.097047 0.394474 -0.065836
出 0.053940 0.676048 0.213975 0.118962 -0.467993 0.245729 0.638454 0.214657 -0.331602 -0.057193 0.000485 -0.004357 0.390614 -0.484000 -0.601673 -0.016111 -0.698575 0.440739 -0.653515 -0.541131 0.199018 -0.372976 0.178236 -0.114129 0.384335 -0.225814 -0.050814 -0.238105 0.257168 -0.418041 0.729684 -0.111909 -0.430097 -0.579437 0.059032 -0.571007 0.521489 -0.187131 -0.505757 0.478999 -0.905068 0.067304 0.173243 -0.380415 -0.461061 -0.068074 -0.055488 0.036022 -0.612930 -0.506418 -0.180517 0.477666 -0.017424 0.081343 -0.555855 -0.517913 -0.653564 -0.398820 -0.623766 -0.077000 -0.658481 -0.347799 -0.158974 0.183788 -0.133329 0.263066 -0.514774 0.038425 -0.363276 -0.875722 0.435385 0.276507 0.244619 -0.029379 -0.363721 0.992942 0.440080 -0.120544 -0.670835 -0.475921 0.312175 -0.959468 0.004656 -0.114861 0.833887 0.767730 0.183405 -0.708971 0.136341 0.095733 -0.223033 -0.333212 -0.137091 -0.083798 -0.241266 -0.138958 0.045063 -0.570001 0.224326 -0.581101
作 -0.123612 0.509927 -0.202263 -0.531902 -0.284118 0.666048 0.474013 0.383596 -0.158935 0.219412 0.061756 0.154392 -0.302142 0.009179 -0.035711 0.043321 -0.377080 0.246211 0.048162 0.041782 0.325444 0.087644 0.096509 -0.203488 0.449408 -0.559713 0.116988 -0.111722 0.316069 -0.285922 0.915943 0.065060 -0.037225 0.183383 -0.120726 -0.450897 0.813886 0.371386 0.020200 0.305107 -0.753046 -0.109854 0.201068 -0.596509 -0.417384 -0.106811 0.082218 -0.288589 -0.905565 -0.347714 0.219730 0.733780 0.126863 -0.196201 -0.022172 -0.330222 -0.110358 -0.518169 -0.310363 0.217588 -0.841944 0.192080 0.006549 -0.303060 0.244237 -0.341271 -1.044981 0.024350 -0.297447 -0.151792 -0.063445 0.039846 -0.393055 0.259896 -0.443909 1.184350 -0.292711 0.323473 -0.215944 -0.755073 -0.245089 -0.444937 -0.288841 1.005316 0.483274 0.322948 -0.260747 -0.680324 0.414946 0.006647 0.242547 0.277308 -0.204809 0.231673 0.426373 0.586199 -0.006451 -0.561128 0.288035 -0.215206
要 -0.574949 0.225269 0.061541 0.238225 0.850685 0.401187 0.936586 -0.000988 0.075089 0.118487 0.017132 0.138107 0.229132 -0.416451 -0.407027 0.305896 0.245025 0.341906 -0.095276 -0.091231 -0.108184 -0.119980 0.192720 -0.160133 0.357671 -1.002774 0.411724 -0.581392 0.172298 -0.421809 0.717937 -0.487012 -0.413454 -0.104297 -0.414782 -0.139468 0.174489 -0.466611 -0.459323 0.062199 -1.088323 -0.306985 0.591449 0.021317 -0.449069 0.335525 -0.245493 -0.444568 -0.707245 -0.226487 -0.043705 0.139840 0.225375 -0.240811 0.371190 -0.211284 0.273561 -0.134786 -0.132105 -0.064365 -0.784397 0.064749 -0.371064 -0.300132 0.100327 0.256000 -0.807352 -0.015668 0.150924 -0.219456 0.135404 0.262119 -0.106737 0.020006 0.213395 1.278758 -0.412411 0.474280 -0.036358 -0.716304 0.369736 -0.646046 -0.147031 0.286477 0.513275 0.389010 0.158918 -1.136389 0.445217 0.641955 -0.434505 0.063671 -0.272382 0.309805 0.573711 0.321000 0.127382 -0.606899 -0.101369 -0.295041
行 -0.113926 0.056034 0.354284 0.269596 -0.415706 1.019962 0.317239 0.456078 -0.707845 0.183180 -0.004139 0.014728 -0.407036 -0.324423 -0.505769 0.359433 0.207990 -0.184992 -0.513646 0.164610 -0.562467 0.959715 -0.389232 0.384878 0.338090 -1.459326 0.078828 0.215175 -0.065354 0.409040 -0.326132 0.309789 0.037510 0.015787 -0.610793 -0.130023 0.557908 -0.333646 0.002368 0.192365 -0.744359 0.115460 0.116710 0.159694 -0.288360 -0.058604 0.417617 -0.573164 -1.213322 -0.425498 -0.012843 0.231609 0.370076 -0.414750 0.256280 -0.294144 -0.669145 -0.179867 -0.208488 -0.256636 0.007683 -0.446919 0.036821 -0.238002 0.118210 -0.288600 -0.386240 -0.387079 0.515937 -0.279338 0.359149 0.151374 0.367813 0.269197 0.151416 1.071447 0.051008 -0.139524 0.179407 -0.073603 -0.809476 -0.632376 -0.064039 -0.152611 0.655853 0.534621 0.085685 -0.247395 0.096039 0.394093 0.265472 -0.242569 -0.525962 0.237371 0.910163 -0.090074 -0.209119 -1.093767 0.374805 -0.263152
工 -0.296045 0.559357 0.018594 -0.518723 -0.243589 0.285392 0.544506 0.474514 -0.104836 0.320703 0.337346 0.455643 -0.222899 0.195357 -0.644948 -0.159418 -0.385939 0.098976 -0.054994 -0.249049 0.489470 -0.219129 -0.678725 0.310936 0.137133 -0.505532 -0.010390 -0.290564 0.154161 0.288839 0.497467 -0.100155 -0.153116 0.189887 0.222958 -0.147591 0.970877 0.619983 -0.148406 0.023409 -0.400976 -0.402677 1.261503 -0.423548 -0.195171 0.146216 -0.250394 -0.347813 -0.931594 0.155197 0.491505 0.608212 0.136521 -0.561574 0.189509 -0.227441 -0.032384 -0.537985 -0.145357 0.300584 -0.077207 0.203120 -0.240064 -0.307892 0.338846 -0.216902 -1.174853 0.416666 0.201989 0.342539 -0.235295 0.207831 -0.492737 -0.199451 -0.507574 1.315188 -0.328057 0.121690 -0.490069 -0.724688 -0.042071 -0.460987 -0.090514 0.781571 0.453986 0.479963 -0.169231 -0.592955 0.257701 0.143500 -0.498031 0.849343 -0.924789 0.337281 0.445705 0.516688 -0.461909 -0.283897 0.140409 0.112248
民 -0.398840 0.433486 0.151294 0.014643 0.442159 0.467770 0.464791 0.511894 -0.666690 -0.581053 -0.322584 0.255284 0.442272 -0.285235 -0.912451 0.285533 -0.083824 0.557785 0.617409 0.171800 -0.759974 0.050184 -0.452314 -0.500482 0.216260 0.153934 0.000529 0.070128 0.656452 1.015778 0.918828 0.831600 -0.308952 -0.650280 -0.363427 0.000250 0.996647 -0.619825 0.063255 -0.029188 -0.950658 -0.020874 0.157055 -0.936526 0.234079 -0.467189 0.444951 -0.825302 -0.662694 -0.003188 -0.149437 0.218892 0.131346 -0.334887 0.321476 -0.350922 -0.329523 0.235523 0.276612 -0.415828 -0.665115 -0.109644 -0.079781 0.018962 0.139006 -0.040790 -1.425577 0.350201 0.510688 -0.105214 -0.082300 0.300668 -0.261171 0.562423 -0.449281 0.445126 0.240814 -0.477135 -0.141107 -0.549629 0.148452 -0.521929 -0.316724 0.232193 0.668600 -0.238292 -0.131801 -0.343241 0.885025 0.314362 -0.686558 0.016463 0.020513 -0.476265 0.485375 -1.167714 -0.516637 0.057714 0.122990 0.191620
这 -0.171023 -0.081166 -0.020831 -0.050865 0.014997 0.115097 -0.017768 0.021235 -0.338820 0.341189 -0.136119 0.234782 0.281104 -0.245047 0.197051 0.183707 0.461947 0.333406 -0.049051 0.194368 -0.269387 -0.154254 -0.054001 -0.267612 0.229612 -0.303247 0.406918 -0.249975 0.414091 -0.003468 0.628147 -0.195091 -0.279776 0.075488 -0.362195 0.129627 0.074966 -0.151962 -0.106766 0.023561 -1.083064 0.145194 0.691196 -0.181282 0.028297 0.396166 -0.445480 -0.332674 -0.605003 0.051513 -0.004699 0.268498 0.040461 -0.103986 0.214467 -0.532514 -0.449396 -0.372841 0.434818 0.492430 -0.762913 0.040770 0.174021 -0.160624 0.305089 -0.489512 -0.556531 0.150335 -0.442526 -0.772704 0.224358 0.073825 0.240879 0.112654 0.356470 0.383725 0.204033 0.283085 -0.381023 -0.119387 0.106335 -0.539130 0.154814 0.404306 1.076545 0.289707 0.330818 -0.347039 0.348082 0.330979 0.015194 -0.157515 -0.280612 0.228139 0.508478 -0.028027 0.318373 -1.058626 0.149967 -0.341020
经 0.115563 0.276494 -0.904154 0.610641 -0.512991 0.471851 0.845425 -0.287211 -0.390949 -0.185896 0.005251 0.700220 0.028189 -0.363449 -0.007241 0.093352 0.177847 -0.049522 -0.886449 -0.025512 0.170300 0.065805 -0.328261 -0.258704 0.376930 -0.664718 0.287870 -0.170364 0.539704 0.087276 0.399053 0.462490 -0.546542 -0.148139 -0.037403 -0.184386 0.441239 -0.301171 -0.091511 0.018663 -1.243492 0.245893 0.318684 -0.626337 0.129362 0.386099 0.303750 -0.325290 -0.983230 0.493120 -0.513128 0.240254 -0.012981 0.363041 -0.083032 0.149163 -0.164736 -0.272228 -0.075215 -0.226271 -0.536209 -0.225288 -0.329166 -0.223834 -0.086280 0.220359 -0.535853 -0.287671 -0.222804 -0.029799 -0.430691 -0.553853 -0.138346 0.302813 0.430659 1.359101 0.325215 0.282118 0.089566 -0.586368 -0.348309 -0.202052 0.113735 0.116085 1.527275 0.378564 0.942438 -0.451330 0.549532 0.288467 0.230315 0.517688 0.149315 0.402141 0.220650 0.067079 -0.564788 -0.411449 0.075572 0.105245
新 -0.387145 0.009587 -0.163576 -0.077627 0.188049 0.390865 0.464563 -0.164552 -0.140000 -0.063648 -0.307923 0.662433 0.247277 -0.100279 -0.535239 -0.296010 -0.540790 -0.421819 -0.384424 0.070456 -0.175020 -0.034102 -0.182613 0.149683 0.731421 -0.256113 -0.068343 -0.301395 0.539214 0.581939 0.443114 0.101460 -0.633588 -0.137670 0.160097 0.170845 0.998362 0.437099 -0.374942 -0.082029 0.009097 0.261766 0.196904 -0.167352 -0.090147 -0.875144 0.046570 -0.187878 -0.517348 -0.333296 0.305652 0.551680 -0.541737 -0.308809 0.057406 -0.115978 -0.256032 -0.357482 -0.047555 1.174381 -0.414451 -0.217838 0.300471 -0.376391 -0.685541 0.086748 -1.234379 0.360016 -0.450919 -0.497123 -0.371719 0.184021 0.068218 -0.068524 -0.153278 0.721854 -0.157071 -0.407880 -0.313913 -0.303269 0.114109 -1.426633 -0.164699 -0.369228 0.597242 0.815483 0.376986 -0.171706 0.628437 -0.413036 -0.980234 0.098919 0.142907 -0.260805 -0.465989 0.577759 -0.632896 -1.634270 -0.530285 -0.000444
家 0.139343 0.568909 -0.226033 -0.029788 0.266595 -0.358181 0.230642 -0.050629 -0.269000 0.386474 -0.252918 0.573670 0.373476 -0.093104 -0.194634 -0.217245 0.067972 0.517134 -0.225822 -0.485843 0.387985 -0.290580 -0.750006 0.307072 -0.643359 -0.373184 -0.297201 0.115246 0.568524 0.172982 1.133567 0.355331 -0.901380 -0.024208 0.167950 0.080561 1.009309 -0.290170 0.181965 0.179900 -1.195896 0.182350 0.278100 -0.567126 0.233335 -0.192927 0.349056 -0.051652 -0.828247 -0.408306 -0.348202 0.069024 0.301172 -0.345728 0.175359 -0.792629 -0.882243 -0.033992 0.351283 0.251464 -0.610449 0.227687 0.027828 -0.177676 0.423555 -0.580896 -0.417554 0.232775 0.195943 0.120835 -0.269464 -0.147622 0.184369 -0.093641 0.218768 0.797824 0.211208 0.069759 -0.653514 -0.476814 -0.043781 -0.330842 -0.160815 0.084575 0.691631 0.105675 0.323069 0.248765 -0.477293 0.258726 0.163600 0.168259 -0.613890 -0.002006 -0.071168 -0.204124 -0.190574 -0.692490 -0.080844 0.353448
个 -0.321584 0.135302 0.083255 -0.120045 -0.430178 0.114881 0.311380 0.358187 -0.369075 0.551917 -0.188618 0.787680 0.172302 -0.483030 -0.007060 0.124458 0.724548 0.235823 -0.506973 -0.018744 -0.062278 -0.333682 -0.512010 -0.404388 0.417094 -0.299757 0.224568 -0.108597 0.745105 0.410639 0.502947 -0.002149 -0.284391 0.218727 0.233367 0.210629 0.239420 -0.063290 0.048875 0.031265 -0.833181 0.067830 0.679662 -0.405066 -0.036373 0.387987 -0.465609 -0.105011 -0.787772 0.305500 0.054843 0.193455 -0.110070 -0.148341 -0.142053 -0.363272 -0.396372 -0.277200 0.053568 0.317916 -0.366730 -0.292247 0.129898 -0.003901 0.183042 -0.710025 -0.588824 0.261841 -0.398418 -0.522731 0.030791 0.174527 0.041758 0.006938 0.737369 0.649858 0.645967 0.307081 -0.730408 0.119472 0.189542 -0.233793 0.331362 -0.031501 0.619627 0.026647 -0.100640 -0.699512 0.606127 0.572221 0.178232 0.436622 -0.546289 0.110764 0.210133 0.035594 0.131370 -0.889535 0.098633 -0.017870
日 0.046339 0.049374 -0.060607 -0.165231 -0.486020 -0.093637 -0.172987 -0.327092 -0.519282 -0.278157 -0.107869 0.507117 0.887698 -0.589238 0.051930 -0.461393 -0.518845 -0.246998 0.062347 0.063305 -0.815465 -0.424987 -1.107856 -0.449371 0.844995 -0.672683 0.414172 -0.123571 -0.002630 0.892702 -0.265425 1.316618 -0.249372 -0.677469 -0.691696 -0.054970 1.236294 -0.173202 0.239054 -0.531989 -0.278081 -0.371446 -0.282071 -0.001860 -0.552850 -0.316161 0.102931 -0.389325 -0.376519 -0.042237 0.010677 0.375036 -0.112157 -0.148553 0.389979 -0.137750 -0.687895 0.054918 0.155147 0.449109 -0.170393 -0.471372 0.508111 0.012424 -0.202753 -0.088781 -0.731160 0.660457 0.403675 -0.857438 0.426578 0.395794 -0.051590 -0.107887 0.269972 0.037491 0.566561 -0.119760 0.028839 -0.508950 -0.469509 -0.518293 -0.262585 0.139263 0.659652 0.631168 0.105204 0.356601 0.307753 -0.156808 -0.008758 0.056934 -0.465198 -0.050412 0.028863 1.493608 -0.502129 -0.950332 -0.533510 -0.067000
部 -0.221379 0.087432 0.708571 -0.153667 -0.272479 -0.193257 0.340749 0.596482 -0.110154 0.169279 0.221772 0.457015 -0.109030 -0.048215 -0.468442 0.791043 0.170571 0.395560 -0.091072 0.122094 0.138634 -1.069789 -0.287558 0.074849 0.046339 -1.170879 0.198755 0.406081 0.184942 0.229962 0.489853 0.631623 -0.465899 0.123364 -0.578290 -0.902173 0.919906 0.171242 -0.114672 0.428163 -0.476713 -1.184065 0.539911 -0.128304 0.319281 0.012211 0.153110 -0.108108 -0.997090 0.337416 -0.116699 0.359613 0.851283 -0.618242 -0.569005 -0.323891 -0.489062 -0.508379 0.222528 -0.105130 -0.322551 -0.330526 0.160772 -0.760064 0.134632 -0.178343 -0.819977 -0.156412 0.211615 0.271488 0.204662 0.201919 -0.215325 -0.024789 -0.212504 0.561850 0.324846 0.223189 0.024263 -0.800632 -0.462109 0.109868 -0.712423 0.448670 0.422870 0.660493 -0.372225 -0.304199 0.316041 0.720551 -0.619580 -0.444577 0.178237 0.083072 0.450640 -0.000480 -0.547114 -0.650755 0.432921 0.032055
以 -0.260864 0.276583 0.115189 0.113971 0.440043 0.104136 0.930132 0.239945 -0.145332 0.431163 -0.107370 0.734345 0.293453 -0.275322 -0.184192 0.138835 0.498215 -0.278390 -0.120081 -0.401647 -0.694482 -0.137740 0.085270 0.183751 0.902263 -0.758930 0.173267 -0.642172 -0.080803 0.142293 0.084908 0.335286 0.085006 -0.006722 -0.789610 -0.125415 0.152452 -0.074550 0.384859 0.362447 -0.887107 -0.455732 0.293110 -0.763609 -0.045787 -0.063348 0.193817 -0.230248 -0.594257 -0.253001 0.081553 0.399225 0.205269 -0.277626 0.147851 -0.142497 -0.268809 -0.540675 -0.246962 -0.080838 -0.333625 -0.434383 -0.176567 -0.158912 0.045404 -0.660894 -0.553430 0.425982 0.076558 -0.629299 0.186462 0.142756 -0.217763 0.091561 0.028141 0.748249 0.158642 0.162494 0.020685 -0.129253 0.006173 -0.042097 0.100366 -0.077947 0.628311 0.167395 -0.286523 -0.032891 0.721038 0.311590 -0.385569 0.195274 -0.248569 -0.074148 0.100890 0.138807 -0.161362 -0.399583 0.172413 -0.142041
到 0.008298 -0.091959 0.105509 0.291017 -0.013055 -0.134517 0.623893 -0.459251 -0.253425 0.343718 -0.142595 0.290111 0.427175 -0.261218 -0.200986 0.164483 -0.210596 0.277130 -0.292244 -0.203272 -0.563545 -0.346109 -0.315611 -0.570633 -0.136113 -0.335555 -0.086718 -0.242541 0.567157 0.425024 0.145333 0.148664 -0.206093 -0.147564 -0.216251 -0.331542 0.463707 -0.319255 -0.269864 -0.115579 -1.090112 0.025951 0.797477 -0.156276 0.014417 0.435977 0.030516 0.044048 -0.368858 0.306588 0.224742 0.107072 0.463913 -0.256656 -0.153922 -0.865034 0.051412 -0.084055 -0.025222 0.017597 -0.544204 -0.168273 0.400017 -0.042234 0.474442 -0.755756 -0.695494 0.510307 0.618991 -0.235754 -0.181885 0.238804 0.115593 -0.240473 -0.030010 0.437008 0.041869 -0.092234 -0.347404 0.185690 0.137573 0.203037 0.098280 0.175525 0.438496 -0.199883 0.403776 -0.287457 0.756164 0.110784 -0.371241 -0.192102 -0.465059 0.285149 -0.074983 0.326309 -0.309373 -0.723199 0.403253 0.148862
来 0.221791 0.096847 0.026546 0.268195 -0.099436 -0.222520 0.374009 -0.690032 -0.200020 0.123059 -0.588345 0.412163 0.452802 -0.227275 0.269618 -0.280587 -0.112329 -0.007033 -0.618656 0.047822 -0.572565 -0.463450 -0.221984 -0.227890 0.186205 -0.124886 -0.136283 0.116232 0.526980 -0.119001 0.045585 0.164474 0.005665 -0.152090 -0.342117 -0.460060 0.489172 0.129986 -0.294134 0.163260 -1.363666 -0.350110 0.525478 -0.501270 -0.080619 0.023465 -0.255084 -0.112202 -0.061942 -0.056585 -0.394485 0.632168 -0.103230 0.019708 -0.211055 -0.405545 0.099679 -0.194614 0.103820 0.249833 -0.971381 -0.098102 -0.071751 -0.200162 0.383354 -0.456091 -0.456635 0.451192 0.167154 -0.135916 -0.391875 0.544139 0.396157 0.128518 0.439839 0.853884 0.263586 -0.063614 -0.570802 -0.075377 0.347528 -0.576738 -0.021685 -0.117763 0.894593 0.418217 0.365744 -0.586775 0.839478 0.275999 -0.285030 -0.329626 -0.007914 -0.020494 -0.182721 0.188281 -0.048429 -0.859874 -0.017781 -0.045305
２ 0.103794 0.377462 0.232344 -0.009794 -1.121049 0.180335 0.289022 0.041051 -0.126443 0.211572 -0.087676 0.627845 0.903218 -0.014585 -0.892042 -0.138532 -0.158352 -0.619208 0.201590 -0.687971 -0.435130 -0.319861 -0.825371 -0.578899 1.093053 -0.317089 0.025897 -0.532188 0.371161 0.731458 -0.734515 0.583024 -0.303167 -0.378976 -0.359890 0.056440 0.982703 -0.424952 0.029306 -0.433359 -0.614419 -0.512055 0.110236 -0.008652 -0.185679 0.621282 -0.111373 0.206775 -0.661891 0.408685 0.152911 -0.287033 0.136865 -0.058830 0.458559 -1.029965 -0.392442 0.023695 -0.278076 0.652186 0.375999 -1.144259 0.173928 -0.367176 0.125251 -0.775259 -0.674904 0.585056 0.093867 -0.671623 0.657693 -0.440083 -0.090963 0.207563 -0.017557 -0.157043 0.899314 -0.315013 -0.670929 -0.190140 -0.171554 -0.828911 0.183490 -0.274330 0.378134 0.227887 -0.203788 0.399367 0.101078 -0.149021 -0.363270 0.471352 -0.835663 -0.160191 -0.171356 0.578842 -0.647855 -0.815107 0.210286 0.141160
市 -0.287748 0.344286 0.051677 0.266274 0.152482 -0.414293 -0.082520 -0.223925 -0.005211 0.020701 -0.189918 0.444931 -0.205588 -0.548693 0.082648 0.151820 -0.431072 0.090878 -1.090731 -0.353822 -0.073256 0.310132 -1.048671 -0.245753 0.739625 -0.316200 -0.234122 0.383693 0.609115 0.076563 0.134599 0.644530 -0.071562 -0.812872 0.335676 0.165908 0.812089 -0.725614 0.087369 -0.053622 -0.420112 -0.400263 0.518708 -0.746940 -0.139441 0.568584 -0.270081 -0.377849 -0.829311 0.599139 0.514912 -0.517975 0.726704 -0.394104 0.006699 0.180503 0.123182 0.405374 0.781747 -0.152096 0.137115 -1.107077 0.024966 -0.248074 -0.315838 -0.229942 -1.084678 0.217557 0.487501 -0.637258 -1.083918 -0.122070 -0.112090 -0.346562 0.223083 1.246111 0.642051 0.583550 0.126767 -0.387795 0.132781 -0.268114 0.330066 0.549059 0.767368 0.201645 0.008681 0.023020 -0.187380 0.375876 -0.383389 -0.243061 0.745678 -0.137352 0.275599 0.995812 -1.140223 -0.516405 0.273623 -0.527127
生 0.293825 0.918062 -0.162147 -0.440280 0.333891 -0.124038 0.443148 -0.105086 0.037322 -0.049112 0.975565 0.223855 -0.213867 -0.053905 -0.077185 -0.348735 -0.689208 0.656369 -0.853293 -0.467591 0.115511 -0.091974 -0.676231 0.187151 0.445263 -0.392721 0.019332 0.576943 0.183841 0.254342 0.476771 0.532660 -0.438084 -0.095439 -0.387683 -0.167895 0.033864 0.053489 0.144039 0.073349 -0.697805 0.023017 0.588569 -0.723580 -0.119697 -0.034633 -0.656091 0.354509 0.122390 0.133641 -0.183901 0.043202 -0.058154 -0.334409 0.751468 -0.016486 -0.664696 -0.164656 -0.193863 0.328870 -0.601710 0.015724 0.105388 0.281489 -0.076712 -0.948285 -0.836247 -0.025481 -0.128121 0.407263 0.118933 -0.247601 0.526983 0.420164 0.085389 0.651558 0.464879 0.240856 -0.116860 -0.468790 0.024066 -0.018374 0.150620 0.213370 1.021956 0.067468 0.436059 -0.348593 0.224804 0.331450 -0.390079 0.554139 -0.183075 -0.186648 -0.216355 -0.115061 0.354805 -0.687615 0.215994 -0.012080
成 0.473986 0.234731 -0.153153 0.175846 -0.147209 0.419161 0.419277 0.050159 -0.378714 0.484545 0.057501 0.068921 0.341401 0.384501 -0.010420 0.471107 0.111832 -0.118370 -0.057167 0.272713 -0.021367 -0.000535 -0.543837 -0.014787 0.811187 -0.648067 0.160199 0.025253 0.542650 0.194916 0.109527 0.524371 -0.315540 -0.096647 -0.005759 -0.140429 0.235087 0.768407 0.194028 0.337602 -0.713104 0.049623 0.705997 -0.836835 0.161053 0.034001 0.092082 -0.319631 -0.444096 0.206653 0.707217 0.357823 -0.232840 -0.436914 -0.119096 -0.560990 -0.883473 -0.435172 -0.274271 0.649214 -0.706960 -0.561048 0.286921 -0.307990 -0.464947 -0.094182 -0.347856 0.334458 -0.414875 -0.334160 -0.235528 -0.514439 -0.666271 0.084759 0.314258 0.987458 0.043792 0.265644 -0.284547 0.250090 0.048000 -0.360470 0.504700 0.266886 0.911278 0.406859 0.355005 -0.454378 0.514654 0.072698 -0.051903 0.370645 0.108561 -0.502695 0.223019 0.094614 0.510022 -0.303741 0.257545 0.138470
对 -0.648155 0.455653 -0.152233 0.058885 0.145264 0.593086 0.129342 -0.048547 -0.301646 0.134946 -0.370498 0.376394 -0.024763 -0.171854 0.224610 0.419450 0.099643 0.314607 -0.236825 0.015045 0.090652 0.075051 0.035772 0.142619 0.579264 -0.633747 0.126313 -0.073909 0.040996 0.075526 0.769910 0.167129 -0.672867 0.010502 -0.717632 -0.457737 0.721418 -0.404142 0.045026 0.039859 -0.925103 -0.122708 0.393222 -0.388032 0.050320 0.389373 0.313921 -0.011072 -0.224951 0.545071 -0.268110 0.569175 0.693445 -0.161884 0.405632 0.005726 -0.441558 -0.031113 0.164803 -0.396047 -0.581796 -0.075479 -0.024499 -0.396233 0.170748 0.300786 -0.726432 0.172182 -0.138513 -0.462314 -0.016745 -0.127055 0.402541 0.342362 -0.222200 0.647800 0.134819 -0.057380 -0.007434 -0.187732 -0.433633 -0.637233 0.026249 0.058096 0.495968 0.309767 0.474254 -0.224118 0.385646 0.191051 -0.122567 0.111767 -0.487073 -0.248667 0.006665 0.081746 0.072347 -0.812163 -0.080924 0.098509
进 -0.017773 0.255685 -0.154771 0.017464 0.125240 0.316520 0.419152 -0.011959 -0.313154 0.079307 -0.163460 0.012168 -0.665458 -0.343369 -0.278549 0.053877 -0.042647 0.202472 -0.613572 -0.478713 -0.476551 0.088493 -0.156061 0.403165 0.528793 -0.359470 0.026013 -0.264908 0.287320 -0.023983 0.971910 -0.334536 0.028061 0.023656 -0.461057 -0.109857 0.764808 0.641634 -0.165927 0.607757 -0.788345 -0.194516 0.474789 0.012660 -0.348181 0.017948 0.558569 -0.504474 -0.801814 0.046974 -0.177746 0.493998 0.045736 0.280765 -0.079752 -0.558011 -0.152692 0.352552 -0.183329 -0.088242 0.333120 -0.482343 0.489551 -0.295541 -0.496193 0.065938 -0.982755 -0.239745 0.013328 0.170587 0.147260 0.024906 0.009583 0.112293 0.200484 1.347170 -0.011600 -0.200455 0.196190 -0.098246 -0.126869 -0.892683 0.485874 -0.171625 0.764174 0.340180 0.470202 -0.674662 0.469992 0.192684 -0.099861 0.809302 -0.763557 0.071988 0.289367 -0.206917 -0.534062 -0.837315 0.529047 -0.621411
全 0.135147 0.043393 -0.015468 0.051562 0.026638 0.176102 0.312015 1.078313 -0.358586 -0.390704 0.043948 0.001910 0.183323 -0.241824 -0.418691 0.208435 -0.227241 -0.044779 -0.244431 0.278501 0.051367 -0.535124 -0.263476 0.065631 0.328775 -0.705999 0.055522 -0.356295 0.780675 0.430311 0.674197 0.106636 -0.382596 -0.204738 -0.316739 -0.384105 0.514947 -0.302013 -0.184012 -0.286668 -0.711489 -0.218881 0.663230 -0.456860 0.027949 -0.342611 0.306799 -0.346383 -0.791076 0.379741 -0.183005 -0.185029 0.361755 -0.632038 -0.402682 -0.079271 -0.161221 0.407296 -0.147534 0.242699 -0.008028 -0.845023 -0.117309 -0.393080 -0.076362 -0.787138 -1.090135 0.370967 0.152526 -0.422072 -0.039233 0.000945 -0.709278 0.706392 0.390056 0.807364 0.580183 -0.069920 -0.357574 -0.044339 -0.493809 0.350595 -0.090934 0.598593 0.932595 0.282765 0.053062 -0.167641 -0.110783 -0.045797 -0.446700 0.797295 -0.590243 -0.383987 0.525103 0.000282 -0.230501 -0.386080 0.649855 -0.287221
我 0.014302 0.223396 0.228105 0.044971 0.469769 -0.118846 0.556891 -0.513036 -0.345648 0.321201 -0.461153 0.294200 0.348557 -0.419122 -0.078008 -0.317327 0.201798 0.947910 0.187665 0.042718 -0.267864 -0.666083 0.333359 -0.113078 0.114697 -0.420606 -0.029079 -0.743213 0.614035 0.020077 0.953399 -0.353658 -0.206210 -0.015077 -0.576267 0.276999 0.353571 0.031336 0.078272 -0.254324 -0.830991 0.495474 1.089298 -0.271779 -0.390652 -0.234492 -0.159984 -0.327108 -0.131768 0.075280 -0.353964 0.397033 -0.111806 -0.239985 0.314625 -0.440773 -0.065611 0.060497 0.222143 -0.221109 -1.198341 -0.089371 0.195909 -0.327360 0.790318 -0.492165 -0.193288 0.684784 0.058185 -0.561149 -0.247972 -0.087435 0.180143 0.144505 0.035030 0.531473 -0.090139 0.110642 -0.432022 -0.322746 -0.223354 -0.181895 0.254057 0.248362 1.000750 0.112077 0.715458 -0.537125 0.424510 0.444692 -0.084061 0.125356 -0.313645 -0.034077 0.062152 -0.112441 0.239916 -0.449002 0.030096 -0.093162
们 -0.011736 -0.029326 0.369061 0.076124 0.925677 -0.293812 0.513587 -0.295731 -0.160197 0.168171 -0.504263 0.167127 0.406439 -0.622088 0.009954 -0.050744 0.211496 0.932369 0.015042 -0.038950 -0.486931 -0.700832 0.024976 -0.035735 0.275155 0.009772 0.166174 -0.939703 0.656356 -0.075412 0.514591 -0.619300 -0.308878 0.312144 -0.391917 0.333932 0.365576 0.170339 -0.265931 -0.144445 -0.933692 0.263403 1.020604 -0.556318 -0.317787 -0.294643 -0.067728 -0.588697 -0.304840 -0.325102 -0.363497 0.509357 -0.027606 -0.170555 0.224249 -0.480375 -0.224218 -0.083886 0.165304 -0.430756 -1.295741 0.139250 0.239709 0.063330 0.672731 -0.621740 -0.525900 0.792723 -0.118178 -0.092570 -0.104565 0.274451 0.446657 0.289718 -0.266279 0.873099 -0.294061 0.094819 -0.333432 -0.427691 -0.093190 -0.306554 0.297761 0.534162 0.717679 0.162484 0.404174 -0.356882 0.418835 0.311626 0.018209 -0.261903 -0.218230 -0.308052 0.074272 -0.313332 -0.074842 -0.304454 0.068566 0.038509
政 -0.872649 0.540149 0.519549 0.635285 0.542685 0.416856 0.550844 -0.152274 -0.301634 -0.140239 0.747748 0.847591 -0.326028 -0.209000 -0.655003 0.931321 -0.267046 -0.246703 -0.328273 1.175604 0.385860 0.250098 -0.504592 -0.057560 0.362483 -0.857468 -0.360270 0.187645 -0.095785 0.427397 1.024371 0.817984 -0.274969 -0.491564 -1.171744 -0.304831 0.662852 -0.568470 0.013485 -0.132118 -0.862916 -0.685008 0.563788 0.212771 0.495792 0.336281 0.753111 0.050459 -0.388748 0.571982 -0.274308 0.453186 0.223769 -0.388917 -0.294247 0.349416 0.344080 -1.042526 -0.153761 -0.493269 0.025794 -0.890489 0.242162 -0.245608 0.605104 -0.029445 -0.225162 0.112078 -0.090533 -0.621767 -0.322552 0.194631 0.145163 0.496948 -0.212860 0.707884 0.310131 -0.234776 -0.168576 -0.722708 -0.614783 -0.561030 0.207556 0.384821 0.479019 0.961297 -0.290036 -0.445581 -0.052908 0.515243 0.645068 0.193543 -0.117935 -0.700406 0.704180 -0.331082 -0.580706 -1.229556 0.165013 0.375180
多 -0.378830 0.114968 -0.247164 -0.266859 0.020598 -0.088997 -0.091769 -0.149360 -0.174027 0.376280 -0.601967 0.008815 0.791995 0.139556 -0.164617 0.344824 0.169262 -0.317737 -0.227067 -0.356095 -0.371858 -0.678169 -0.318571 -0.506724 0.501094 -0.330385 0.145283 -0.364059 0.631494 0.636011 0.007521 0.415160 -0.535360 0.312959 0.178720 -0.248728 0.144448 -0.368911 -0.228287 0.769576 -1.056521 0.274252 0.208497 -0.863541 -0.057481 0.584845 -0.504607 0.183172 -0.614657 0.741699 0.406149 0.421931 -0.040357 0.190366 0.353703 -0.961334 -0.180389 -0.835942 -0.170217 0.029252 -0.623699 -0.371374 -0.071405 0.239082 -0.103475 -0.678108 -0.601253 0.023020 -0.246385 0.014998 0.216394 0.036035 -0.226861 0.306368 0.267661 0.786822 0.328571 -0.222752 -0.638020 -0.092353 0.135063 -0.370162 0.113600 0.065792 0.258688 0.339574 -0.083861 -0.441731 0.455757 0.117132 -0.663694 -0.145843 -0.107273 0.404443 0.158948 -0.166328 0.483984 -0.750652 -0.187406 0.079559
主 -0.596800 0.857308 -0.092671 0.132506 0.077032 0.302063 0.337638 0.724636 -0.069901 -0.475664 0.468213 0.557110 0.116317 -0.352668 -0.660653 -0.487577 0.475217 0.150676 0.162277 -0.342858 0.157113 -0.236245 0.020830 0.077566 0.649481 -0.502853 0.487191 0.438553 -0.100559 0.243146 0.851301 0.304983 -1.079862 -0.514598 -0.491233 -0.750974 0.231058 -0.951380 0.280558 0.270024 -0.587679 -0.503699 -0.151308 -0.704441 0.373335 -0.792350 0.026171 -0.692366 -1.018846 0.140791 -0.518193 -0.092856 0.504459 -0.119875 0.228903 -0.270784 0.254215 0.194842 0.761977 0.642420 -0.518970 -0.478408 -0.423909 -0.491461 0.219938 -0.038969 -0.676902 -0.502294 -0.069311 -0.885781 -0.450489 0.013005 0.108480 0.211783 -0.374790 1.165326 -0.298576 -0.022005 -0.069323 -0.458539 -0.195254 -0.349737 0.189235 -0.125678 0.534269 0.719637 -0.011744 -0.740714 0.505333 -0.102648 0.437933 0.281309 -0.284328 -0.009061 0.344342 -0.474191 0.109755 -0.333205 0.208766 0.078768
时 -0.398338 -0.340512 -0.227829 0.127568 -0.005082 0.431426 0.142017 -0.192579 0.026861 0.343812 -0.206508 0.409204 0.344392 -0.786826 -0.406211 0.010739 0.221975 0.630790 -0.218244 0.097156 -0.712197 0.105560 -0.022849 0.032773 0.290380 -0.162508 -0.157584 -0.772957 -0.042575 0.211916 0.055357 0.266789 -0.195364 -0.141347 -0.699824 0.359961 0.313353 -0.020714 0.221763 -0.330539 -0.714853 -0.228741 0.719428 -0.373023 -0.340099 0.147473 -0.419339 0.009495 -0.733667 0.047331 -0.027650 0.239194 0.483056 -0.127903 -0.174311 -0.460894 -0.206955 -0.233776 0.241418 -0.075682 -0.735717 0.223043 0.319345 0.197347 -0.257031 -0.434705 -0.480060 0.302394 0.026248 -0.200571 0.288034 0.339700 0.060410 0.312265 -0.337674 0.713523 0.689604 -0.160472 -0.165694 0.061415 -0.225644 -0.116657 0.107114 -0.157630 0.751788 0.363246 0.257937 -0.746120 0.484047 -0.170536 -0.052294 0.003873 -0.415741 0.243257 -0.522570 0.558895 0.139982 -0.506564 -0.358467 -0.360091
他 -0.010605 0.324171 0.156252 0.112258 0.372865 0.046619 0.396016 -0.229510 0.111580 0.485040 -0.385158 0.069280 0.602930 -0.638267 0.124245 -0.186183 0.323219 0.838049 -0.025018 0.089996 -0.538568 -0.342618 0.058654 0.282116 0.288407 0.083659 -0.067290 -0.614917 0.304381 -0.127789 0.204587 -0.228381 -0.427487 0.148340 -0.395955 0.022821 0.510932 -0.071659 0.043469 0.120523 -1.158636 0.046694 0.854344 -0.510256 -0.103445 -0.117772 0.247316 -0.212724 -0.539813 0.014178 -0.421179 0.938832 0.142700 -0.300595 0.033250 -0.554189 -0.343493 -0.081782 0.134181 -0.323212 -0.688196 0.305705 -0.017985 -0.197254 0.669542 -0.645259 -0.449014 0.820943 -0.468603 -0.108216 0.074400 0.355299 0.840757 0.295170 -0.449797 0.528294 -0.253874 0.376158 -0.326487 -0.269601 -0.167517 -0.372697 0.428546 0.590970 0.514124 0.346931 0.269722 -0.141422 0.415283 -0.007590 0.214942 -0.370245 -0.739396 0.050021 0.265686 0.159218 0.290971 -0.360490 0.374590 0.014596
产 0.125017 0.881487 0.244618 0.181225 0.360666 0.425373 0.627477 0.789125 -0.563555 0.224937 0.375063 0.392172 0.386339 0.170212 -0.078275 -0.113867 -0.667860 -0.503820 -0.800801 -0.605588 0.043012 -0.652136 -0.698790 0.066217 0.974162 -0.678495 0.178511 0.192356 -0.240020 -0.021853 0.410612 0.050185 -0.194885 -0.142570 -0.054579 -0.243613 0.356976 -0.467950 0.005986 0.023428 -0.476328 0.160714 0.538796 -0.852346 -0.484404 0.205453 0.333216 0.310076 -0.015676 0.305710 0.234002 -0.337428 0.067645 -0.089422 0.512564 0.168087 -0.651686 -0.033459 -0.069802 -0.275093 -0.772357 -0.306696 -0.932329 -0.388828 -0.109069 -0.537569 -1.040535 -0.265937 -0.426604 0.617945 -0.384394 -0.800911 -0.421054 -0.029765 0.826693 0.393973 0.116448 0.419555 -0.283712 -0.676687 -0.230151 0.104588 0.780025 -0.350184 0.645893 0.643849 0.388196 -0.642807 0.270514 0.162731 -0.335580 1.445390 -0.660079 0.515486 -0.037035 -0.068931 -0.374046 -0.968422 0.387524 -0.510501
本 0.167075 0.473704 0.503648 -0.103296 0.187970 0.617922 0.390762 -0.168336 -0.566677 -0.226699 0.107495 0.164976 0.449392 0.275387 0.205558 -0.691836 0.196311 -0.164513 -0.811781 0.171239 -0.101548 -0.019151 -0.801796 -0.509250 0.690407 -0.286693 0.607556 -0.234816 0.531218 0.503091 0.098766 0.872688 -0.672422 0.156627 -0.739528 -0.411232 0.604475 -0.143509 -0.519084 0.126814 -0.541025 0.059863 0.062351 0.020354 -0.061484 -0.734412 0.302385 -0.573221 -0.327876 -0.252221 0.072120 0.027895 -0.088480 -0.501430 0.636615 0.041152 -0.060564 0.009430 0.280488 0.512779 -0.209039 -0.734425 0.086876 -0.240320 0.119246 0.530376 -0.744470 -0.038169 -0.190522 -0.600887 0.049884 -0.241894 -0.479496 -0.136908 0.442456 0.539518 0.478973 0.534365 0.306712 0.136395 0.001390 -0.556903 -0.081054 0.544901 0.556873 0.209909 0.135286 0.094351 0.322189 0.002139 0.188606 -0.043961 -0.032272 0.197710 0.139187 0.661118 0.044704 -0.913684 -0.161616 -0.240490
展 0.049025 0.436474 -0.126597 0.381231 -0.218787 0.558213 0.463734 0.141708 0.154787 -0.491274 -0.008480 0.150506 -0.786461 -0.442888 0.004671 0.348869 -0.204284 0.043969 -0.878649 -0.233624 -0.239837 0.207152 0.350631 0.201003 0.900133 -0.822693 0.159142 -0.151949 0.358271 -0.071167 0.796898 -0.027518 0.148946 -0.029246 0.059152 -0.081439 0.691377 0.209978 -0.035280 0.852446 -0.435310 0.822999 0.254350 -0.530154 0.153824 -0.024928 0.087661 -0.455603 -0.268618 0.172866 -0.742787 0.125001 -0.513723 0.904250 -0.156550 -0.245996 -0.257054 -0.427808 0.233837 0.178414 -0.292529 -0.625226 0.016324 -0.064258 0.217817 -0.449900 -1.440753 -0.068098 0.216983 -0.104647 -0.281603 -0.739562 0.034742 0.490167 0.175472 1.234448 0.099313 0.230824 0.378742 -0.691188 -0.286725 -0.213122 -0.303652 0.360394 0.371142 0.030693 0.930011 -0.914684 0.637749 -0.154028 -0.617863 0.723138 0.144051 0.254768 -0.177623 0.249996 -0.032294 -0.856252 0.186428 -0.603653
长 0.114825 0.446814 -0.076139 -0.248551 -1.126413 -0.302322 0.392761 0.003807 -0.616780 -0.039867 0.451052 0.743773 0.205902 -0.126185 -0.481612 0.299878 0.549057 0.468955 -0.570123 0.404400 0.411442 -0.013671 -0.091762 0.084048 0.004333 -0.936260 -0.288158 -0.190228 0.055491 0.500774 0.215421 0.802670 -0.582327 -0.554030 -0.272628 0.063802 0.183196 -0.072115 0.504853 -0.140550 -0.592854 -0.591010 0.719186 -0.522975 -0.402649 -0.387275 -0.152064 -0.558383 0.041605 0.445536 -0.074252 0.066030 0.624113 0.070484 -0.215907 -1.614710 -0.041456 -0.248280 0.405955 -0.157132 0.061194 -0.592330 0.680436 -0.778925 0.127705 -0.652346 -0.486356 0.031400 -0.024966 -0.199366 -0.062368 -0.820159 -0.099346 0.427424 -0.584436 0.183763 0.056310 1.308290 0.418676 -0.588958 0.344808 -0.238789 -0.712615 -0.250984 0.114595 0.613681 0.161783 0.027456 0.700340 0.101640 -0.566659 -0.183863 0.005361 0.256924 0.304042 0.324947 -0.424012 -0.673881 0.091502 -0.356288
实 0.313208 0.363519 0.046198 0.267411 0.550713 0.737229 0.853332 0.112871 0.116292 -0.060988 -0.217662 -0.057590 -0.427778 -0.136427 -0.634646 0.155459 0.200102 -0.370578 -0.292367 -0.567486 0.540505 0.309248 -0.630077 -0.043904 0.225149 -0.350942 0.209616 0.021444 0.138447 0.082253 0.871248 -0.263529 -0.021821 0.935481 -0.402491 -0.254760 0.149228 -0.065331 -0.403837 0.489869 -0.687006 -0.108795 0.469312 -0.103932 0.213529 0.185132 -0.136850 -0.374995 -0.652298 0.045559 0.189302 0.178962 -0.171605 -0.604155 0.276800 0.149639 0.591313 -0.228543 -0.825219 -0.065151 -0.879937 -0.612508 0.226245 -0.247966 0.288714 -0.193148 -0.816987 -0.064219 0.974077 -0.950286 -0.143999 0.055238 -0.146906 0.605941 -0.126467 0.557960 -0.214738 0.507656 0.348958 -0.322032 -0.222750 -0.405058 -0.001194 0.451323 1.039651 0.071006 0.535909 -0.903566 0.543840 0.379602 -0.399422 0.793432 -0.516299 0.920308 0.988950 0.221827 0.040859 -0.619709 0.420757 -0.312222
者 0.232682 0.196955 -0.093015 -0.736731 0.134303 0.021878 0.653254 -0.873841 -0.010609 -0.152628 -0.123868 -0.306033 0.203352 0.087275 0.471307 -0.655747 0.046490 0.373802 0.182882 0.403538 -0.242370 0.029128 -0.989325 -0.051697 0.817870 -0.371348 0.205222 -0.018532 0.938870 1.413786 -0.363665 0.803038 -0.719067 0.265829 -0.590387 -0.364344 0.636430 -0.412029 0.258733 0.244952 -1.235235 -0.294530 -0.037721 0.319342 -0.535670 -1.013627 -0.021088 -0.302392 -0.123523 -0.373671 -0.241309 0.148120 0.113067 -0.650562 0.583897 -0.158833 -0.270772 -0.059392 -0.302063 0.561040 -0.377645 -0.304354 -0.307616 0.164081 0.472682 0.395860 -0.468351 -0.066065 -0.499893 -0.367447 0.239166 0.439856 0.000828 -0.129126 -0.712845 0.983998 0.492114 0.464321 0.040017 -0.493203 -0.522326 -0.220764 0.267589 0.609684 0.142790 0.771588 0.515242 0.849045 -0.029139 -0.081926 0.070701 -0.421367 -0.258054 0.389138 -0.381574 0.135325 -0.278259 -0.455699 -0.599203 -0.024273
学 0.130736 -0.216792 -0.050671 -0.767674 -0.028512 -0.766704 0.808478 -0.040877 -0.006563 0.708535 0.520074 0.562189 -0.511804 0.014153 -0.035650 -0.326460 -0.135636 0.649405 0.250083 -1.318691 0.175139 -0.119362 -0.794561 0.034377 0.171175 0.155096 0.102119 0.014193 1.137399 0.306672 0.722935 -0.020045 -0.455956 0.453296 -0.529925 -0.779644 0.100080 0.452583 -0.059598 -0.017043 -0.686556 -0.398742 0.546995 -0.498581 0.516617 -0.194054 -0.024265 -0.386669 -0.403161 -0.044384 -0.289962 0.391981 0.811013 0.080458 0.437664 -0.354570 0.205181 -1.098444 0.090034 0.743034 -1.037363 -0.488958 0.090664 0.079353 0.075309 -0.479723 0.212160 0.134991 -0.563512 0.221979 0.378413 -0.080329 -0.104745 0.511463 0.045907 1.836527 -0.312991 0.105038 0.410738 -0.807168 -0.264465 -0.745459 0.026211 0.323847 1.205120 -0.395570 0.414455 0.157953 -0.356188 0.576853 -0.001461 0.451777 -0.040040 0.155206 -0.142922 0.138376 0.318222 -0.882791 0.256674 0.878316
建 -0.571022 0.948505 0.225419 -0.017575 -0.312886 0.958866 0.373479 -0.230830 0.043376 -0.203509 -0.412751 0.849217 -0.521843 0.548836 -0.812253 -0.217704 0.025347 -0.404125 0.523554 -0.048189 0.123314 0.597631 -0.251000 0.458537 0.196388 -0.607044 0.014460 -0.321893 0.146754 0.270724 0.609633 0.678017 0.038658 0.007446 0.005710 0.117453 0.799851 0.294532 -0.234585 -0.062976 -0.360368 -0.785056 0.635499 0.291528 0.206985 0.102508 -0.894771 -0.541617 -0.580416 0.101709 0.176354 0.211047 -0.161236 -0.404184 0.070634 -0.523334 0.224449 -0.137644 0.230227 0.368771 -0.110386 -0.647593 0.624859 -0.646942 -0.084496 0.449719 -1.026176 0.200382 -0.128641 -0.317587 -0.550877 -0.012908 -0.715480 -0.295796 0.037484 1.668939 0.470105 0.071751 -0.146661 -0.458602 -0.120502 -0.536277 0.285516 1.004128 0.795267 0.299849 0.266278 -0.471137 0.846895 0.084097 -1.011280 0.959485 -0.063284 -0.520945 -0.233130 -0.499049 0.439000 0.203371 0.248042 0.231733
方 -0.609732 -0.093052 0.390611 0.193128 0.469707 -0.329806 0.294583 -0.112381 -0.252379 0.006191 -0.569375 0.377228 -0.060441 0.159306 -0.216923 -0.028501 0.026576 -0.314059 -0.337257 -0.092729 -0.154667 -0.101019 0.066932 0.279286 0.847198 -0.391843 0.580887 -0.146223 -0.154800 0.591492 0.455419 0.215531 -0.020957 0.118309 0.130782 -0.580714 0.029666 -0.356922 0.393012 0.838118 -0.768740 0.218515 0.308948 0.292183 -0.015538 0.375342 0.170714 -0.370645 -1.042540 0.064390 0.196230 0.625507 0.496061 0.042916 0.265631 -0.375322 0.125874 -0.600528 -0.425511 -0.504472 -0.346665 -0.682989 0.307269 -0.444701 -0.640139 0.127069 -0.930128 -0.056614 -0.480287 -0.568874 0.384520 -0.020062 0.089777 0.417607 0.266259 0.786459 0.401959 -0.249759 -0.300501 -0.360563 0.245850 0.027652 -0.043475 -0.194482 0.761011 0.806163 0.441162 -0.482173 0.395251 0.126853 -0.206735 0.201602 0.081406 0.232820 0.632045 -0.198633 -0.106288 -0.593500 0.931665 0.505198
） -0.027278 -0.067421 0.488979 0.026049 -0.304907 -0.326511 0.411632 -0.455991 0.279454 -0.797392 0.162026 -0.040765 0.228983 0.667067 -0.587457 -0.031048 0.298893 0.080711 0.119563 0.117265 0.105093 0.387208 -0.898754 -0.224760 0.226013 -0.063269 -0.006185 -0.364029 0.746186 0.536072 -0.091553 0.899505 0.086010 -0.015381 -0.093669 -0.954386 1.815113 -0.823714 0.517481 -0.389294 -0.048362 -0.157888 0.254838 0.733415 0.163864 -1.432710 0.132212 -0.314963 -0.174116 -0.029722 0.217177 -0.215900 0.101423 -0.296797 0.671519 -0.653341 -0.209790 0.031617 0.165815 1.126186 -0.162376 -0.738607 -0.128603 0.422384 -0.761928 -0.093636 -1.266319 -0.293591 -0.184172 -0.697376 0.206119 -0.285826 0.035696 -0.228941 -0.161006 -0.065604 0.991040 0.656173 0.060636 -0.349641 -0.675972 -0.677332 -0.816251 -0.277003 0.445445 0.066599 -0.434597 0.673685 -0.157941 0.000668 -0.005041 0.316761 -0.365751 0.081569 -0.534775 0.320756 0.043033 -0.903014 -0.432539 0.240480
（ -0.172683 0.008909 0.524232 -0.085661 -0.189412 -0.145392 0.423632 -0.424366 0.347280 -0.679786 0.186391 0.060841 0.035834 0.685446 -0.555152 -0.047180 0.250688 -0.268128 -0.121877 -0.118930 0.178524 0.784688 -1.055601 -0.299084 0.144669 0.187565 -0.162746 -0.472469 0.782027 0.501133 -0.121586 0.713887 0.178103 0.019204 0.061602 -1.024472 1.729440 -0.886732 0.265108 -0.080984 -0.022475 0.144398 0.247271 0.644762 -0.025003 -1.510421 0.066891 -0.243274 -0.218647 0.038475 0.411117 -0.278556 -0.219809 -0.321904 0.724040 -0.686243 -0.161875 0.080271 0.284340 0.952671 -0.129233 -0.997871 -0.065316 0.553891 -0.785958 -0.297935 -1.352532 -0.397694 -0.404950 -0.734146 0.174884 -0.133434 -0.007166 -0.195401 -0.125277 -0.165558 0.872120 0.764959 -0.107273 -0.140420 -0.581337 -0.848968 -0.799902 -0.198253 0.448304 0.223270 -0.620784 0.707338 0.002612 -0.131242 -0.199240 0.318588 -0.417881 -0.023168 -0.434781 0.361459 0.125977 -0.901792 -0.401301 0.172001
开 0.120283 0.389190 -0.137819 -0.104213 -0.049792 -0.054830 0.251636 -0.054335 -0.366372 -0.001687 -0.438933 0.371623 0.051854 -0.472294 -0.535340 -0.500726 -0.278493 0.081371 -1.134969 0.094446 -0.274125 -0.148262 -0.334552 0.176258 0.790640 -0.895386 0.467740 0.072241 0.028705 -0.105155 0.745975 -0.369373 0.290963 -0.676295 -0.026740 0.077670 0.462150 0.552702 -0.130590 0.687775 -0.531853 -0.373696 0.040785 -0.255020 -0.449440 -0.081782 -0.499628 -0.396863 -0.533301 -0.105715 -0.156626 0.367914 0.241053 0.151161 -0.051093 0.019752 0.087892 -0.269714 -0.048340 0.563301 0.198752 -0.504026 -0.009687 0.247430 0.438387 -0.349975 -0.969186 0.614768 0.238756 -0.165932 -0.109300 0.055096 0.065986 -0.242611 0.373214 0.933661 0.119033 -0.330381 0.351764 -0.434361 -0.489336 -0.717342 0.028331 0.308654 0.476163 0.218716 0.241697 -1.020965 -0.277437 -0.053199 -0.657142 0.322798 -0.720583 -0.216757 0.030128 0.321838 -0.297944 -0.958067 0.355445 -0.349878
理 -0.430282 0.535535 0.067043 -0.458957 -0.662898 0.943575 0.241812 -0.272112 0.389395 0.577451 0.118748 -0.043210 -0.271159 0.024141 -0.713756 0.037413 0.029007 0.400555 -0.147280 -0.473887 -0.103453 0.227466 -0.517856 0.606023 0.096248 -0.719997 0.357238 0.027115 -0.451787 0.425107 0.535188 0.138772 -0.134791 0.138301 -0.390248 -0.776257 -0.523417 -0.439646 0.003198 -0.225318 -1.000738 -0.475091 0.655187 -0.385405 0.056291 -0.431326 0.011751 -0.276202 -0.906901 0.485806 -0.119158 0.514626 1.114677 -0.367111 0.093952 -0.471657 0.192646 -0.116869 0.338908 -0.148901 -0.622587 -0.403327 -0.422777 0.062704 0.352675 0.132316 -0.245236 -0.015854 -0.354876 -0.347219 -0.011460 -0.096003 -0.262566 0.296269 0.295226 0.835178 -0.410550 0.434664 0.356793 -0.692158 -0.271658 -0.456207 -0.388156 -0.559136 1.363335 0.801701 0.382411 -0.354586 -0.436253 -0.197159 0.148897 0.422237 -0.100768 0.578322 0.535271 -0.531505 -0.614872 -0.688765 -0.335524 0.019906
同 -0.626475 0.475115 -0.359503 0.677840 0.056745 -0.336074 -0.091275 0.619391 0.073934 -0.215362 -0.008933 0.301061 -0.020577 -0.641435 -0.597307 -0.143116 0.188214 0.603347 0.419224 0.099789 -0.771910 -0.151089 0.141023 0.492247 0.500660 0.071805 0.454642 0.131510 -0.313708 0.353382 0.179450 0.377191 0.068267 0.462341 -0.349404 -0.161519 0.285496 -0.457462 0.227044 0.419812 -1.125434 0.107994 0.108103 -0.439880 -0.547085 -0.008399 0.073535 -0.275486 -0.664855 0.109670 0.286075 -0.165290 0.117773 0.263789 0.182352 -0.238718 -0.020205 -0.165360 -0.434197 -0.226398 -0.903478 0.115977 0.156673 -0.399172 0.297370 -0.098715 -1.082898 0.696878 0.000487 -0.044355 -0.538262 -0.166776 -0.063666 0.577911 -0.486403 0.935445 0.102874 0.266077 -0.061425 -0.489179 0.316509 -0.584862 -0.122928 0.600386 0.460424 0.474679 0.550841 0.085986 0.492966 0.481242 -0.009259 0.135651 -0.606605 -0.407228 -0.415101 -0.562125 0.172395 -1.138319 0.406851 0.900679
动 -0.531166 -0.147650 -0.337367 -0.535989 0.262818 0.256952 0.255235 0.356996 -0.091584 -0.409325 0.368209 -0.419524 -0.192713 -0.058237 -0.104409 -0.236675 -0.177216 0.480962 -0.588762 0.063753 -0.099978 0.430381 -0.406594 0.109727 0.999205 -0.320568 0.476952 0.532465 0.418125 -0.816287 -0.006467 -0.051362 -0.279625 0.008345 -0.406653 0.054454 0.024475 0.349342 -0.285230 0.674998 -1.004153 -0.806163 0.034182 -0.752791 -0.664057 -0.255689 0.260737 -0.512080 -0.227887 0.720811 -0.389459 0.722180 -0.452029 -0.396637 0.102675 0.230901 -0.465196 -0.012338 0.293710 -0.207815 -0.075612 -0.490520 -0.075745 0.108595 0.257419 -0.828232 -0.915062 -0.161856 0.481080 0.036339 0.319166 0.346179 0.688631 0.370107 0.668413 0.691394 0.103149 -0.448948 -0.268250 -0.668463 -0.618472 -0.015416 0.720825 0.933716 0.710555 0.301287 0.204654 -0.286299 1.031422 0.073914 -0.337256 -0.243996 -0.336020 -0.119460 0.450836 -0.176295 -0.293065 -1.027223 0.426010 -0.499341
月 0.212747 -0.368649 -0.103008 -0.138521 -0.603631 -0.032512 0.096479 -0.252192 -0.416727 0.023478 -0.471866 0.494265 1.249533 -0.912551 -0.630655 -0.401616 -0.220733 -0.050316 -0.161622 -0.155840 -0.541540 -0.240989 -1.165905 -0.798383 1.014143 -0.686266 0.019892 -0.264366 0.460353 0.922446 -0.744063 1.151906 -0.347166 -0.668981 -0.556925 0.038374 1.025554 -0.025853 0.127391 -0.034468 -0.192559 -0.437129 0.181310 0.015610 -0.527981 -0.468109 -0.234751 -0.416817 -0.572478 0.062100 -0.018304 0.061431 -0.499747 -0.255935 0.173411 0.008618 0.017598 0.079202 -0.605724 1.056039 0.463372 -0.652733 0.303582 -0.571838 0.129090 -0.338283 -0.340587 0.486629 -0.417481 -1.129991 0.433656 0.420035 -0.219849 0.017485 0.270382 -0.246749 0.514048 0.164869 0.382717 -0.166268 -0.535028 -0.517564 0.144227 0.159567 0.701567 0.545970 0.591616 0.208790 -0.080661 -0.271528 -0.230705 -0.055495 -0.854992 -0.339562 -0.169132 1.213789 -0.406618 -1.050838 -0.093213 0.197290
高 -0.052725 0.477992 0.210368 -0.247911 0.319272 0.146526 0.441758 0.134022 0.329504 0.484848 0.371382 0.504572 0.004075 0.039349 -0.838723 0.029485 0.124740 0.156520 -0.064416 -0.376253 -0.657820 0.318973 -0.796776 -0.185730 0.095110 0.082321 -0.466370 -0.402328 0.334680 0.052407 -0.306287 -0.112517 -0.420229 -0.184006 -0.032742 -0.395319 -0.624540 -0.033814 -0.083441 -0.155095 -0.889116 0.453278 0.596305 -0.072516 0.012170 -0.030067 0.387094 0.028723 0.055798 0.063840 0.182030 0.005894 0.343390 -0.049567 0.225827 -1.498497 0.095687 -0.241394 -0.333712 0.125983 -0.697128 -0.184919 -0.072209 -0.193874 -0.170231 -0.453144 -0.738945 0.252265 -0.181668 0.183663 -0.195785 0.036242 -0.986522 0.200889 0.884278 1.333957 0.072664 0.370737 0.499169 -0.605722 -0.107572 -0.516818 0.441981 -0.695936 0.319400 0.137056 0.044923 0.365333 0.978124 0.690391 -0.367738 0.719955 -0.034281 -0.555405 0.431913 0.201245 -0.402128 -0.786430 0.092608 -0.946547
重 -0.256585 0.397166 -0.232038 -0.174764 0.276748 0.887837 0.826339 -0.165257 -0.086477 0.234337 0.381403 0.355462 0.403247 0.241014 0.188997 0.616235 0.472942 0.437778 0.269258 -0.222349 0.190110 0.314406 0.071079 0.125132 0.070592 -0.716181 0.416460 -0.149654 -0.052660 -0.113574 0.529975 0.163597 -0.692589 -0.477474 0.048334 -0.227842 0.429117 -0.385544 0.345684 -0.118295 -0.380077 0.346190 -0.046921 -0.365383 0.037293 0.597003 0.196082 0.195325 -1.065735 -0.017078 0.042329 0.380461 0.282279 -0.913389 0.045281 -0.578841 0.237774 0.085597 -0.150285 0.754822 -0.459474 0.184263 -0.252965 -0.006720 -0.450049 0.054676 -0.697647 0.357947 -0.166657 0.247174 -0.170001 0.018063 0.254209 0.441522 0.726604 0.925605 0.089082 -0.262283 0.009938 -0.584047 0.576812 -0.826630 -0.469028 0.540204 -0.003354 0.102447 0.047149 -0.651228 1.174931 1.007288 -0.403588 0.577835 -0.709715 -0.053612 0.274421 0.660043 -0.175917 -0.526432 -0.484053 -0.163522
关 -0.740030 0.403054 0.480042 -0.226420 -0.146658 0.803919 0.441353 0.803789 0.523499 -0.273082 -0.024760 0.038799 -0.839634 -0.330643 0.190514 0.434120 -0.082739 0.609786 -0.166461 0.567058 -0.653833 -0.781774 0.446074 0.011687 0.179175 -0.637024 0.209302 0.077978 0.099265 0.220048 0.726592 0.083304 -0.100023 0.043574 -0.836627 -0.261361 0.974637 0.271660 0.550330 0.439774 -1.679009 -0.321367 0.404667 0.486604 -0.000442 0.400900 -0.010207 -0.743517 -0.967090 0.329613 -0.396386 -0.194376 0.350052 -0.369909 0.082704 -0.107234 -0.455155 -0.129173 -0.335376 0.166597 -0.657174 -0.142047 0.272048 -0.132509 -0.278367 0.129342 -1.074336 0.295917 0.069806 0.245382 -0.360039 0.446589 0.144531 0.821422 -0.098242 0.065805 0.328569 0.747682 -0.152963 -0.565458 0.260129 -0.279129 -0.272353 0.674422 0.216358 0.441722 0.340897 -0.125690 0.150098 0.822068 0.425016 0.580004 -0.315636 0.159415 0.118937 0.000530 -0.578248 -0.613498 -0.161832 0.168410
电 0.046078 -0.828771 0.405088 -0.435742 0.045049 0.279076 -0.082933 -0.723488 -0.169829 -0.123127 -0.387776 -0.151619 0.071615 -0.044892 -0.400238 0.798919 -0.425074 0.173196 -0.616327 -0.357283 0.051649 -0.281067 -0.419979 0.239924 0.564623 -0.210896 0.080710 0.206523 0.051378 1.190240 -0.165736 0.515476 -1.181338 -0.640073 -0.391916 0.699060 0.742417 -0.356126 0.574437 0.179513 -0.367850 -0.507799 0.462075 0.662219 -0.430623 -0.729615 0.241965 0.541077 0.200799 0.674199 0.250163 -0.891846 -0.582489 -0.655946 0.541664 -0.289127 -0.705110 -0.417671 0.243757 0.704654 -0.182031 -0.095733 -0.074826 -0.742543 0.614848 0.560904 -1.058461 0.696478 -0.308031 -0.452649 0.203465 0.023816 -0.714011 -0.826000 -0.121364 0.549184 0.627589 -0.086589 -0.101624 -1.085993 -0.318032 0.144511 -0.390248 -0.054913 1.042953 0.700461 -0.254512 0.221708 0.535182 -0.449888 -0.291462 0.586199 -0.561062 0.119632 -0.315983 0.452092 -0.594583 -1.107124 -0.324130 0.207060
力 -0.403382 0.246971 0.619771 0.337669 1.058741 0.147370 0.522281 -0.289676 0.291824 -0.591592 -0.180427 -0.149662 0.213817 -0.032402 -0.333026 0.553602 -0.243685 -0.144956 -0.021457 -0.038573 0.506707 -0.096105 -0.394106 0.274485 0.622190 -0.479958 0.811002 -0.431275 -0.302342 -0.625120 0.331977 0.092119 -0.381466 -0.005929 -0.146861 -0.097696 0.167344 0.261679 0.270928 0.701351 -0.573875 -0.570119 0.309250 -0.626121 -0.571230 -0.154590 0.308499 0.604817 -0.236398 0.342870 0.241326 0.388042 0.591753 0.052654 0.231672 -0.412947 -0.225160 0.162299 -0.291055 0.673827 -0.095745 -0.219749 0.014355 0.124920 0.707859 0.574609 -1.168388 -0.246253 -0.170731 0.452047 -0.094320 0.159783 -0.445537 0.639409 0.348649 0.881974 -0.128491 0.195014 -0.087828 -0.934325 -0.882260 0.304477 -0.155564 0.305536 1.104683 0.158410 0.627246 -0.147025 1.377060 0.100967 -0.268676 0.702404 -0.150907 -0.646743 0.271773 0.082963 0.236101 -0.936058 0.561111 -0.337999
现 0.052331 0.496030 -0.415953 0.186427 -0.293196 0.416556 0.469444 0.182407 -0.587195 0.169469 0.165343 0.223598 0.089984 0.108205 -0.460670 0.224604 -0.015420 0.230758 -0.439017 -0.695516 0.553044 -0.169145 -0.437915 -0.098275 0.491477 -0.249117 0.506501 -0.563189 0.026778 -0.197773 0.600764 0.383002 0.025602 -0.027342 -0.422573 0.145261 0.470970 -0.094654 -0.010126 0.249091 -0.765011 0.213232 0.217649 -0.546495 -0.015714 0.629827 -0.209046 0.070950 -0.118100 0.264319 -0.174374 0.342137 -0.453047 0.121992 -0.376522 -0.138281 -0.282605 -0.216566 0.052194 0.061652 -0.699185 -0.080448 0.043180 0.326375 -0.165817 -0.100775 -0.977133 0.116425 0.213106 -1.009399 -0.042864 -0.043928 0.075396 0.059470 -0.054498 0.628828 0.191145 0.267401 -0.165029 -0.065723 0.109835 -0.620730 0.357455 0.124700 1.068855 0.582893 0.498543 -0.843933 0.195285 0.116253 -0.280348 0.409106 0.013993 0.355516 0.019166 -0.169186 0.197026 -0.468281 -0.080591 -0.554040
于 0.197407 0.582672 -0.114547 0.034435 -0.147902 0.526819 0.520838 0.159540 -0.264044 -0.389536 -0.188430 -0.108569 -0.046719 -0.227808 -0.449224 -0.704023 0.334068 0.574865 -0.371653 -0.252631 -0.260017 -0.251122 -0.429941 -0.273508 0.516454 -0.648287 0.115187 -0.280296 -0.026320 0.127938 0.154577 0.319848 -0.054426 -0.029282 -0.967487 -0.200616 0.201433 0.103816 -0.087981 0.067595 -0.983959 -0.568097 0.245508 -0.387660 -0.553255 0.571563 -0.019554 0.025311 -0.406885 0.247903 -0.304474 0.310115 0.222803 -0.116227 0.088604 -0.093715 -0.200542 -0.504509 -0.005075 0.294408 -0.826951 -0.321674 0.415699 -0.410789 0.130730 0.020286 -0.573390 0.157319 -0.195637 -0.279845 0.113831 0.126288 -0.106099 0.058847 0.165001 -0.134890 -0.090494 -0.022430 0.161533 -0.436454 0.132154 -0.033376 -0.047718 0.352539 0.819007 -0.168146 0.499331 0.328335 0.232385 0.493181 0.209087 -0.131779 -0.067459 -0.165991 -0.210436 0.262861 0.093631 -0.429453 0.031435 -0.214717
公 0.447530 0.233448 0.616013 0.200369 -0.225109 0.628633 0.185018 0.412095 -0.747802 -0.125848 -0.502528 0.378871 -0.113317 -0.234622 -0.981619 0.219341 0.015076 -0.035251 -0.471663 -0.380430 -0.338095 -0.203079 -0.565043 0.327208 0.383908 -0.313355 -0.285503 -0.195131 -0.697523 0.355072 0.174757 0.219494 0.311867 -0.189632 0.349309 0.012133 0.873752 -0.235036 -0.203302 -0.003438 -0.820852 -0.162819 0.240893 -0.093699 -0.239674 -0.343128 -0.274015 0.425021 -0.329322 0.741028 0.047840 -0.096751 0.622560 -0.042423 0.911584 -0.924706 -0.325458 -0.853550 0.530522 0.287199 -0.477235 -0.223083 0.068769 -0.859980 -0.413129 0.173473 -0.456748 0.010159 0.525385 -0.039344 -0.812357 -0.274404 -0.159388 -0.458766 0.335208 -0.005725 0.757464 0.070463 -0.351520 -0.524604 -0.140723 -0.060566 0.256472 0.232004 0.749038 0.750778 -0.256049 -0.287084 -0.562696 -0.126106 -0.280284 -0.488869 0.185861 0.346069 0.596162 -0.267129 -0.177899 -0.300574 -0.136652 -0.405253
５ -0.103550 0.304446 0.178505 0.222122 -1.106693 0.250236 0.247361 0.134559 -0.209992 0.379521 0.041862 0.638749 0.798841 0.021806 -1.084894 -0.108497 0.050041 -0.546081 0.014671 -0.793344 -0.440392 -0.266580 -0.735920 -0.571967 1.147640 -0.093280 -0.068291 -0.443355 0.288188 0.285947 -0.535806 0.532637 -0.350936 -0.323625 -0.163641 0.038596 0.743890 -0.100520 0.290352 -0.279445 -0.842803 -0.672101 -0.039806 -0.174923 -0.199078 0.791684 -0.094059 0.321477 -0.495180 0.532288 0.204981 -0.278537 0.326946 -0.174967 0.492043 -1.365198 -0.364139 -0.087150 -0.191597 0.391004 0.181312 -0.936266 0.135181 -0.392864 0.100698 -0.946853 -0.428273 0.576412 0.079869 -0.454861 0.609291 -0.529306 0.041873 0.124021 0.070224 -0.322200 0.876408 -0.282531 -1.020417 -0.001607 -0.023009 -0.755097 0.228510 -0.219993 0.311350 0.075168 -0.499245 0.162919 0.089585 0.013905 -0.535302 0.624179 -0.825129 0.242382 -0.212832 0.336798 -0.530269 -0.642892 0.434470 0.165395
社 -0.524282 0.799566 0.157475 -0.344506 0.333062 0.580071 0.521165 -0.071057 -0.107897 -0.664278 -0.439990 0.306513 -0.122263 -0.404684 -0.646578 -0.155103 -0.608153 0.435339 0.135375 -0.328546 -0.023366 -0.162657 -0.186237 -0.302645 0.750182 -0.548325 0.467679 -0.186845 0.762920 0.647775 0.126732 0.798040 -1.073239 -0.467717 -0.438752 -0.304520 0.447520 -0.588238 -0.103699 -0.230390 0.038961 -0.075504 -0.586466 -0.000237 0.158239 -0.056435 -0.092821 -0.412244 -0.388841 0.049503 -0.247901 0.217557 -0.168120 0.248191 0.050015 0.342689 -0.526714 0.423176 0.282386 1.773486 -0.023339 -0.457251 0.381218 -0.315490 -0.119841 -0.010308 -0.932829 0.042328 -0.529856 -0.829655 -0.260372 0.126267 -0.205414 0.192097 -0.062349 1.355835 -0.024631 0.421038 0.074522 -0.680649 -0.614367 -0.749453 0.233096 0.057257 0.562209 0.585775 0.724562 0.146624 0.468061 -0.510433 -0.372589 0.402179 0.209930 -0.132019 -0.416715 0.224980 -0.712351 -0.887803 -0.504474 0.203033
下 0.086362 0.251664 0.660508 0.383663 -0.319841 -0.334179 0.051696 -0.032547 0.629684 0.223654 -0.332192 -0.109292 0.179617 -0.870596 -0.154030 -0.304592 -0.061041 -0.148150 -0.539646 0.210645 -0.345848 -0.569901 -1.049684 0.255437 1.118961 -0.536993 0.095142 -0.620892 0.379287 -0.459836 -0.595250 0.007057 -0.279159 -0.103539 0.320202 -0.421548 0.323309 0.177025 0.388302 -0.392524 -0.831026 -0.590940 0.921125 -0.249237 -0.093414 0.610498 -0.160694 0.019852 -0.193211 0.710790 0.132838 0.768315 -0.030662 -0.060454 -0.243015 -0.406292 -0.213227 -0.461496 0.206170 -0.353911 -0.221632 0.615268 -0.478549 0.182796 0.852875 -1.014830 -0.838858 0.215045 0.682982 -0.958773 0.314624 0.500142 -0.478264 0.405846 0.183867 0.282046 0.100407 0.411866 0.444219 0.031811 0.179445 -0.184556 -0.218297 0.291914 0.379596 0.741275 -0.151320 -0.428948 0.435275 0.239963 0.157280 0.360556 -0.506295 0.571649 0.116984 0.713398 -0.000577 -0.872577 -0.121068 0.280240
报 -0.049542 -0.285711 0.886675 -0.636471 -0.165444 0.023560 -0.051569 -0.920492 -0.412857 0.042673 -0.128998 -0.050989 0.663197 0.013402 -0.226952 -0.532978 -0.627666 0.229793 -0.125159 0.191215 -0.346193 -0.515670 -0.683079 -0.606064 0.634432 -0.302451 0.272357 -0.070822 0.732021 0.726508 -0.035331 1.154976 -0.530985 -0.142420 -0.834418 -0.082623 1.034748 -0.182582 0.037583 0.240400 -0.753349 0.117746 0.032700 0.456420 0.274971 -1.210026 0.328928 -0.391281 -0.242556 -0.571219 0.055655 0.474428 0.300290 -0.954709 0.165741 -0.213616 -0.171236 -0.013628 -0.502494 0.683951 -0.040402 -1.158496 -0.318408 0.069555 0.021123 0.474260 -0.804570 0.588366 -0.033868 -0.650633 0.007252 -0.227067 -0.287149 -0.036430 0.295514 0.797613 0.859314 0.362108 0.446201 -0.269186 -0.272003 -0.325750 0.095244 0.638319 0.149214 0.797116 0.398193 0.432258 -0.473711 -0.236136 -0.565454 -0.382022 -0.164852 -0.009836 -0.003966 0.404900 -0.853237 -0.575156 -0.966409 0.026462
３ -0.004351 0.208374 0.166498 0.162889 -1.110729 0.010043 0.352726 0.144110 -0.156277 0.438678 -0.140235 0.372968 0.965040 -0.228025 -0.841319 -0.336048 0.131451 -0.537663 0.102855 -0.517388 -0.387855 -0.511582 -0.850713 -0.562968 1.203602 -0.138888 0.163445 -0.559896 0.444044 0.322671 -0.649158 0.422231 -0.288747 -0.278513 -0.169067 0.052863 0.787336 -0.226975 0.155394 -0.235669 -0.808308 -0.670479 -0.074766 -0.170542 -0.175771 0.615117 0.061489 0.487593 -0.595338 0.575017 0.437795 -0.190013 0.498818 -0.437952 0.485454 -1.109184 -0.182379 -0.019563 -0.212125 0.430785 0.163398 -0.980575 0.015988 -0.406374 0.176914 -0.707640 -0.493381 0.410443 0.047602 -0.578133 0.594384 -0.566059 0.062735 0.306888 0.022671 -0.268197 0.936430 -0.202242 -0.915448 -0.106342 0.037403 -0.632687 0.036480 -0.120285 0.292390 0.132447 -0.388008 0.083020 0.191540 0.120615 -0.464771 0.593966 -0.880441 0.066567 -0.311800 0.422293 -0.651819 -0.249178 0.318133 0.275433
区 -0.536527 0.952841 0.376353 -0.010116 0.156955 0.226406 0.584535 0.262356 -0.097246 -0.495248 0.115124 0.802259 -0.557831 -0.315643 -0.201892 0.434633 -0.082395 0.368017 -0.265617 -0.162663 -0.007270 -0.672291 -0.828473 -0.442321 -0.158153 -0.517195 0.063794 0.777613 0.590503 0.734251 0.262053 1.082723 0.403270 -0.154885 0.051758 -0.546611 0.818619 -0.129494 0.103398 0.472245 -0.310984 0.118592 -0.466707 0.153951 -0.224494 0.687659 0.711918 0.158757 -0.520384 0.342708 0.436901 0.507350 0.298028 0.054444 -0.455418 -0.190258 -0.525926 0.484176 0.931465 -0.425548 0.096685 -0.504648 0.388276 -0.496634 0.130548 -0.854883 -1.258152 0.488437 0.396157 -0.777721 -0.059127 0.356980 0.277427 -0.636552 0.609851 1.122288 0.816633 -0.074774 -0.409257 -0.169659 -0.108459 -0.254824 0.009228 -0.157860 0.239307 -0.233838 -0.151956 -0.769221 0.236926 0.823604 -0.776766 -0.167029 0.231393 -0.504802 0.409357 0.209812 -0.577434 -0.274056 0.724446 0.853686
加 0.002317 0.363591 0.177612 0.404900 0.287872 0.176602 0.620888 -0.252948 -0.174141 0.072371 0.100663 0.370027 0.416166 -0.377130 -0.590233 0.683917 -0.397897 -0.581565 0.029973 -0.214278 -0.011929 0.080669 -0.159027 0.138089 0.076225 -0.620720 -0.284861 -0.214844 0.591550 -0.644362 0.186151 0.673700 -0.466619 0.093675 0.102257 -0.076724 0.306054 0.148370 -0.209786 0.371527 -0.620266 -0.499255 -0.065073 0.185550 -0.445948 0.352695 -0.006886 -0.724760 -0.759524 0.142299 0.701388 0.062938 0.716547 0.208631 0.818081 -0.267883 -0.560485 0.000567 -0.184778 -0.496473 -0.084204 -0.388784 0.725721 0.109232 -0.015140 0.459570 -0.645645 0.126576 0.305767 -0.149682 0.082071 -0.217887 -0.315746 0.596092 0.111305 1.363407 -0.695018 0.191353 -0.299531 -0.120568 -0.109800 -0.796365 -0.342174 -0.212434 0.017235 0.278155 0.632328 -0.119569 0.817576 0.056361 -0.653187 0.443319 -0.527730 -0.408637 -0.042621 0.284598 -0.378700 -0.901595 -0.175387 -0.139719
分 -0.725036 0.447894 0.493547 -0.171301 0.543477 -0.653843 0.704531 0.726758 -0.168542 0.030279 0.329309 0.392890 0.217889 -0.330809 -0.094972 0.356848 1.122389 -0.239655 -0.052786 -0.584801 0.503345 -0.496035 -0.389618 0.618433 0.566364 -0.860238 0.234896 0.162288 0.280975 0.454690 0.157680 0.579446 -0.034867 0.143990 -0.228127 -0.166655 0.895916 -0.052143 0.426230 0.194352 -0.344228 -0.988830 0.301572 -0.971524 0.219557 1.122550 0.277368 0.009120 -0.198554 -0.142237 0.752819 -0.022296 0.307723 -1.356863 -0.064927 -0.686426 -0.282418 -0.404316 -0.108805 0.114879 -0.303380 -0.033932 -0.267865 -0.443742 -0.252431 0.126242 -0.596489 0.837080 -0.403275 -0.475465 0.215090 -0.438239 0.027509 0.376179 0.038045 0.571747 0.115796 0.080111 -0.081452 0.024693 -0.137712 -0.171403 0.278472 0.035108 0.929315 0.375016 0.122515 -0.438143 0.496619 0.157930 0.094284 -0.317575 -0.405669 0.791234 0.191046 0.454415 -0.012793 -0.813900 0.178271 -0.434745
济 -0.520225 0.576898 -0.746129 0.550623 -0.091831 0.803474 0.827530 -0.265487 0.039084 -0.548339 0.254902 0.586174 -0.337967 -0.603181 0.121241 0.111556 -0.069265 -0.144024 -0.390914 0.093889 0.255865 0.129233 0.060211 -0.129258 0.477730 -0.617373 0.675607 -0.428796 0.620045 -0.407856 0.280921 0.495538 -0.481678 -0.309080 0.155384 -0.231157 0.252280 -0.457870 -0.188689 -0.358434 -0.887615 0.398632 -0.172048 -0.522350 0.536641 0.681390 0.657919 -0.420156 -0.811342 0.420564 -0.583195 0.387837 -0.075932 0.339684 0.082535 -0.036318 -0.211209 -0.255042 0.196111 -0.143665 -0.020841 -0.356514 -0.252022 -0.199162 -0.141771 0.019894 -0.620399 -0.321836 -0.068180 -0.312126 -0.029418 -0.877379 0.059578 0.650294 0.798926 1.209790 0.356715 0.624145 0.571735 -0.807303 -0.088630 -0.049691 0.149691 0.138268 1.428026 0.048959 1.442989 -0.566357 0.653723 0.006125 -0.095501 0.766853 0.496003 0.426365 -0.271797 0.499881 -0.518256 -0.301007 -0.113429 0.155138
制 -0.358850 0.576050 0.340208 1.419558 0.225508 0.987930 0.672763 0.263223 -0.524204 0.007676 -0.754860 0.282266 -0.096449 0.337637 -0.030237 -0.114782 -0.089677 -0.402996 -0.812618 0.116096 0.237145 0.829220 0.064213 -0.387993 1.044727 -0.489152 -0.209119 0.042340 -0.033721 -0.442094 0.600180 0.423000 -0.582768 -0.011958 -0.247242 0.355609 -0.003469 0.649103 0.339772 -0.379622 -0.339566 0.311072 -0.170596 -0.083724 0.106184 0.299779 0.059678 0.343216 -1.115578 -0.056725 0.312086 -0.221164 1.144131 -1.113054 0.141683 0.061144 -0.254769 -0.509507 0.130251 -0.093737 -0.475882 0.005910 -0.142912 -0.542434 -0.270180 0.128998 -1.192767 -0.949383 -0.040324 -0.195769 -0.767729 -0.842168 -0.697417 -0.267465 0.565646 0.884336 -0.861166 0.286896 0.325278 -0.631836 -0.909515 -0.171051 0.335293 0.020459 1.129667 0.623505 0.449040 -0.252890 0.095797 0.627661 0.043909 -0.031098 -0.867042 0.227221 0.958785 -0.288272 -0.110903 -0.532177 -0.271126 0.479580
自 0.315926 1.093897 0.736682 0.077625 0.339453 0.453132 0.905887 -0.016540 -0.342713 -0.156666 -0.367985 0.258623 0.161571 -0.056295 -0.120489 -0.163760 0.446445 0.245281 -0.088693 0.250198 -0.091359 -0.067305 -0.248634 -0.672945 0.761436 0.080358 -0.066009 -0.029454 1.210041 0.712578 -0.001701 0.050874 0.140403 -0.074295 -0.255356 -0.313202 0.721795 -0.373122 0.902564 0.270783 -0.583890 -0.454693 0.126631 -0.147199 -0.480918 0.352770 0.188106 -0.036371 -0.158184 -0.051072 -0.299097 0.541526 0.408977 -0.497153 0.501026 -0.034249 -0.264186 -0.411096 0.058933 -0.169242 -0.835089 -0.148388 0.193007 0.254843 0.547456 -0.509099 -0.827042 0.231838 -0.268832 -0.297819 0.015164 0.444457 0.412439 -0.265070 0.311156 0.855734 -0.539352 0.356263 -0.929801 -0.438899 -0.504856 0.490356 0.129752 -0.416937 0.832235 -0.268805 -0.009160 -0.648140 0.056511 0.117880 -0.005914 -0.624330 0.115239 -0.712753 0.596920 -0.310537 0.584015 -0.437116 0.485613 -0.092296
化 -0.301722 -0.085384 -0.917713 -0.062263 0.076614 0.293704 0.050819 0.729205 -0.324652 0.127453 0.114688 0.489504 -0.278201 0.618727 -0.162990 -0.246512 -0.667868 -0.201439 -0.287759 -0.957315 0.464731 0.322483 -0.083674 0.288178 0.462153 -0.159960 0.148263 -0.541965 0.724960 -0.055898 0.939049 0.539526 -0.282825 -0.064658 -0.207841 0.011284 0.154306 -0.229114 -0.139817 -0.101270 -0.195106 -0.441404 0.458180 -0.203626 0.009608 0.761611 -0.047585 -0.526402 -0.228613 0.791222 -0.364247 0.344819 -0.357177 -0.090648 0.171008 0.628462 -0.183941 -0.298575 0.891722 0.194039 -0.801411 -0.517731 -0.052258 -0.097465 -0.565641 0.266537 -1.308926 0.192086 -0.069786 0.073005 -0.079960 -0.219941 -0.100336 -0.025135 0.250010 1.392873 -0.428176 0.412247 0.366651 -0.203670 -0.499795 0.554587 0.208741 0.136850 0.824740 0.359153 0.337972 -0.255352 0.685629 0.220211 -0.705164 0.909940 0.090242 0.205040 0.094124 -0.358564 -0.198863 -0.703411 -0.125700 -0.837354
文 -0.089630 -0.126471 -0.242621 -0.473516 -0.284009 -0.205920 -0.300320 0.350122 -0.079727 0.043181 -0.049610 0.247988 -0.459096 0.148895 -0.671616 -0.582440 -0.389746 0.641977 0.156268 -0.372409 0.649513 0.264986 0.095115 0.000158 0.303433 0.164670 -0.063759 -0.415881 0.894081 0.436426 0.948598 0.859980 -0.228768 0.267615 -0.460214 -0.141338 0.870525 -0.572848 0.360223 0.059712 -0.401299 -0.945739 -0.242798 -0.034623 0.423041 -0.276719 -0.040542 -0.493461 -0.435518 -0.572601 -0.806716 0.547561 -0.344892 0.103645 0.306804 0.066518 0.041329 0.036589 0.222837 0.515886 -1.665629 -0.551989 -0.121215 0.208580 -0.181673 0.111318 -0.851565 0.254733 -0.935795 -0.506720 0.161570 0.104519 0.282897 0.126323 0.071122 1.723292 0.329046 0.560186 -0.031621 -0.790315 0.200251 -0.085843 -0.293534 0.834066 0.073601 -0.065871 -0.868353 0.349472 0.772455 -0.028563 -0.179162 0.441161 -0.047273 0.567427 -0.670246 -0.277403 0.586561 -0.494340 -0.017656 -0.503560
定 -0.303360 0.766386 0.519480 -0.275280 0.675641 1.265411 1.316357 0.411923 -0.300342 -0.601232 -0.299008 0.451329 0.106011 -0.561001 -0.081718 0.341565 0.272056 -0.281173 -0.198163 -0.211549 0.053634 0.373379 0.046688 -0.305911 0.561232 -0.780439 0.033580 -0.258068 -0.281305 -0.019069 0.150694 0.398635 0.090467 -0.149320 -0.382488 0.232247 0.582167 -0.254772 0.371570 -0.316494 -1.197243 0.543641 0.482009 -0.209096 0.091890 0.194939 0.398474 -0.571174 -0.431556 0.027105 -0.233464 0.358849 0.151565 -0.107837 -0.697083 -0.021486 0.131553 -0.205530 0.027299 -0.705190 0.139459 0.148863 0.413508 -0.565320 0.080285 -0.279439 -1.133396 -0.091342 -0.016103 -0.858301 -0.128233 -0.763628 -0.659122 0.334745 0.185869 0.516020 -0.406821 0.102995 -0.048924 -1.134780 0.109586 -0.573087 0.007515 0.983242 0.942287 0.247123 -0.191797 -0.259879 -0.347077 0.127037 0.570397 -0.051592 -0.595381 0.216914 0.185524 0.169499 -0.154557 -0.383991 0.093652 0.347365
合 -0.206146 0.312548 -0.476056 0.087321 -0.242652 0.850858 0.147491 0.387765 0.009485 0.243805 -1.354731 -0.000404 -0.048746 0.177164 0.356089 0.441509 -0.039212 -0.311866 -0.390928 -0.432603 0.351452 0.429039 -0.093966 0.341256 0.547890 -0.485606 0.434584 0.466916 0.055786 0.346371 0.267641 0.472207 -0.361259 -0.265556 0.189412 -0.026421 0.232447 -0.104100 0.219944 0.354868 -1.222965 -0.597903 -0.256312 0.249366 0.132214 0.126373 0.149894 -0.198828 -0.872244 0.054423 0.006613 0.007542 0.243028 0.087099 0.455227 -0.115180 -0.319923 -0.197014 -0.047001 0.246086 -0.690303 -0.509508 -0.047599 -0.314982 0.127133 -0.337264 -0.999703 0.006948 -0.012897 0.209381 -0.281256 -0.442623 -0.280492 1.253698 0.191131 0.896227 -0.071430 1.244817 -0.341378 -0.341599 -0.497305 -0.299202 -0.028771 0.039526 0.632548 0.333656 0.318917 -0.637873 -0.262750 0.137611 0.320377 0.324641 -0.217940 -0.444429 0.832096 0.260906 -0.253715 -0.951382 0.139176 0.345972
过 -0.601290 -0.694011 0.045412 0.011133 -0.300783 0.166711 0.406013 -0.311154 -0.774679 -0.140555 -0.147638 0.377691 0.387549 -0.103677 -0.452796 -0.087052 -0.111330 0.161623 -0.612172 0.038408 -0.075238 -0.018249 -0.436814 -0.664737 -0.142443 -0.325655 -0.071332 -0.562773 0.173227 -0.015308 0.330537 -0.011684 0.296837 -0.018872 -0.167247 0.148463 0.191136 0.359634 -0.197392 0.307919 -0.999393 0.455791 0.775812 -0.736155 -0.306654 0.458056 -0.597437 -0.071746 -0.652041 0.352894 0.171150 0.123242 -0.183041 0.177969 0.093895 -0.479458 0.169481 -0.445473 -0.324954 0.385036 -0.489173 0.134433 -0.039071 0.098187 0.144095 -0.076178 -0.679592 0.098004 0.040240 -0.052746 0.139961 0.002446 -0.124059 0.333416 0.251188 0.851257 0.179350 0.002529 -0.476011 -0.088420 -0.480709 -0.477469 0.151449 -0.204008 1.072747 0.427520 0.272115 -0.220613 0.671084 0.157722 0.559550 -0.315712 -0.873881 0.148986 0.377458 0.217763 -0.303126 -0.748867 0.024282 0.001073
前 0.401350 0.304289 -0.374540 -0.113871 -0.190010 -0.159373 0.185958 0.004723 -0.429079 0.044196 0.314911 0.692113 0.182923 -0.467032 0.091177 -0.078806 0.072712 0.110446 -0.879051 -0.256175 -0.360006 -0.322094 -0.382462 0.283422 0.256844 -0.616937 0.198725 -0.221086 0.116975 -0.338110 0.520618 -0.305525 0.278867 -0.246054 -0.402908 0.426297 0.567621 -0.015501 -0.086306 0.076240 -0.897180 0.240219 0.309671 0.101883 -0.169388 0.242834 -0.076242 -0.101322 -0.282973 0.070249 0.137453 -0.049848 0.075442 0.208615 -0.167875 -0.551109 -0.090383 -0.191122 -0.085819 0.232567 -0.361782 -0.168750 0.289732 -0.236512 -0.219501 -0.297008 -1.151352 0.595192 0.471321 -0.516932 0.029211 0.279621 -0.018250 -0.097514 -0.363606 0.551829 0.356946 -0.122168 -0.139562 -0.007731 0.044931 -0.366985 -0.278843 -0.007515 1.100230 0.328227 0.179485 -0.037015 0.099389 0.090225 -0.152670 -0.021672 -0.429895 -0.176331 -0.078795 0.701822 0.025214 -0.507023 -0.150463 0.022191
体 -0.417109 0.185498 -0.510685 0.305763 -0.331144 0.551396 -0.230978 0.973860 -0.254860 -0.351439 -0.216960 0.066540 -0.268509 0.146169 -0.450270 0.044628 -0.144973 0.309042 -0.248278 -0.252779 0.173296 0.065893 -0.605630 0.093262 0.456100 -0.338474 0.371367 -0.641943 0.512462 -0.115000 1.021693 0.489763 -0.638630 0.358950 -0.076160 -0.272137 -0.213817 -0.453432 -0.056612 -0.032286 -0.344924 0.298481 0.182028 -0.561286 0.356181 0.186272 0.107412 -0.236207 -1.309313 0.034389 -0.154331 -0.185825 0.004753 -0.561229 -0.187720 -0.355515 -0.114742 -0.322609 0.434676 -0.033843 -1.097632 -0.694313 -0.333743 -0.343395 -0.109136 0.144759 -1.528497 -0.152665 -0.172250 0.101952 -0.286452 -0.742924 -0.379365 0.377978 0.840293 1.012807 -0.115221 -0.016773 0.355274 0.103976 -0.896407 0.160696 0.139316 -0.105756 0.854556 0.196817 0.603194 -0.622198 0.252675 -0.567494 -0.188434 -0.225717 -0.497259 -0.040700 0.710493 0.074009 0.274004 -0.115953 -0.197343 -0.068141
等 -0.139507 0.117610 -0.135964 -0.169020 -0.023944 -0.152291 -0.029815 0.564921 0.136181 0.201209 0.463712 0.117627 -0.432683 0.121203 -0.167340 0.062525 -0.248263 0.097433 -0.381525 -0.024875 0.111223 0.136713 -0.370482 -0.025329 0.070204 -0.024681 0.105910 0.405589 0.062835 0.698536 -0.046868 0.514280 -0.621138 0.171710 0.185735 -0.444920 0.272876 -0.467562 0.133722 0.434961 -0.629874 0.130079 0.381432 -0.048962 -0.024958 0.033626 -0.177284 -0.255116 -1.076842 0.085904 0.398098 0.233871 0.307624 -0.297458 0.459083 -0.175471 -0.487339 -0.863670 0.383970 -0.249559 -0.156636 -0.038047 -0.087182 -0.119005 -0.178752 -0.421039 -0.876521 -0.334258 -0.394379 0.305611 0.239001 -0.252610 -0.114125 -0.044081 -0.035327 1.170422 0.181782 -0.093630 0.078919 -0.463863 0.411904 -0.271100 0.211408 -0.414921 0.205129 0.664052 -0.059901 0.041116 -0.285067 0.170879 -0.298133 0.057296 -0.465037 0.129903 -0.503796 0.038036 -0.282164 -0.934664 0.409255 -0.056692
场 -0.071239 -0.148917 -0.043091 0.096326 0.138955 0.432340 0.144282 0.331182 -0.191924 0.046028 -0.259832 -0.242520 -0.088390 -0.772779 0.492191 0.244807 0.052626 -0.349622 -1.062188 -0.745248 -0.125441 -0.159956 -0.615205 -0.080341 0.842123 0.018662 0.435793 -0.081021 0.061563 -0.571556 -0.241726 0.110206 -0.431625 -0.440441 0.013510 0.141538 0.387414 -0.601729 -0.033129 -0.007866 -0.736575 0.185473 0.268273 -0.705396 -0.277967 0.230319 -0.303639 -0.235322 -0.905465 0.155511 0.325982 -0.135595 0.398107 0.038602 0.163164 -0.248072 0.019527 0.327379 0.716061 -0.081737 -0.235812 -0.502607 -0.088284 0.283133 -0.357701 -0.073545 -0.893884 -0.315607 0.468361 -0.379497 -0.421427 -0.130873 -0.113448 -0.082949 0.359122 1.031802 0.165313 -0.328773 0.044413 0.083765 0.011864 0.029428 0.393351 0.235327 1.198136 0.396825 0.158353 -0.677410 -0.039015 -0.137018 -0.239625 0.069068 0.676967 -0.241357 -0.222869 0.408389 -0.620558 -0.356158 -0.151670 -0.902877
就 0.221529 0.261680 0.241199 0.076470 0.104492 -0.144911 0.254350 -0.601857 -0.164667 0.338065 0.039376 0.195892 0.411155 -0.328348 -0.017086 -0.057322 0.047599 0.060049 -0.204316 -0.183677 -0.388158 -0.145811 0.023469 -0.196391 0.353094 -0.657762 0.151742 -0.308468 0.300014 -0.044543 0.426208 -0.467154 -0.310165 -0.386729 -0.366242 0.098980 -0.238619 0.001862 -0.108997 0.083248 -0.990114 -0.155926 0.924003 -0.330097 -0.310506 0.151869 -0.629482 -0.431221 -0.472885 0.112262 0.481086 0.574761 -0.239330 -0.178559 -0.169364 -0.328649 -0.419890 -0.433032 0.001118 0.267333 -0.406217 -0.113040 0.093122 -0.071238 0.344972 -0.476445 -0.388696 0.068124 0.275987 -0.215617 -0.033259 0.432898 0.029410 0.074302 0.168435 0.669486 -0.280226 0.399036 -0.645090 -0.225086 0.485086 -0.313106 0.406604 0.394319 0.858264 0.335557 -0.063618 -0.485438 0.635214 -0.123278 0.238112 0.315123 -0.015054 -0.156512 0.386145 0.277524 0.299049 -0.519736 0.091682 -0.008241
天 -0.115580 -0.014973 0.291522 0.192436 -0.725970 -0.964332 -0.627370 -0.496951 -0.539052 -0.331594 0.183647 -0.138954 0.485461 -0.909648 0.185477 -0.216583 -0.044208 0.810724 -0.073496 -0.252800 -0.322191 -0.206951 -0.605750 -0.465293 -0.190651 -0.731053 0.076593 -0.279405 0.734090 0.641900 0.181698 0.785166 0.374505 -0.654054 -0.157167 -0.175967 0.289181 0.081459 0.337456 -0.444598 -0.302499 -0.435935 0.562798 0.077260 -0.135120 -0.167629 -0.751403 -0.272223 -0.589008 -0.684727 -0.445628 0.944852 0.622385 0.165154 -0.019085 -1.255527 -0.560298 -0.589628 0.680105 0.121812 -0.680047 -0.468269 0.158436 0.337651 0.108862 -0.697635 -0.243415 0.465626 0.313996 -0.766512 0.457788 0.225428 -0.022734 -0.307845 0.173097 0.003617 -0.058111 -0.358155 0.375440 -0.368784 -0.157591 -0.067696 0.013634 -0.249844 0.706659 0.713436 0.154704 -0.456024 -0.255687 -0.026849 -0.240283 -0.189409 -0.485174 -0.205119 0.131109 0.812209 0.254711 -0.682460 -0.071668 -0.413076
与 -0.289197 0.393988 -0.284761 -0.003634 0.172559 0.168826 0.022758 -0.167840 -0.322490 -0.245765 -0.222886 0.270199 -0.136002 -0.075901 -0.040037 0.078994 0.222932 0.078779 -0.037711 -0.157836 -0.245894 0.162880 -0.170457 0.065926 0.332414 -0.448755 -0.147327 0.350885 -0.027725 0.122327 0.589770 0.354249 -0.496954 0.014322 -0.282449 -0.107340 0.056102 0.150805 0.012151 0.372005 -0.864038 -0.150940 -0.067837 -0.441852 -0.199295 0.301518 0.228542 -0.636812 -0.558741 0.296924 -0.125216 0.403383 0.169943 0.085995 0.727708 -0.115461 -0.613707 -0.091478 0.062813 -0.264629 -0.833007 -0.103717 0.137198 0.060744 0.064509 -0.229244 -1.130580 0.219215 -0.091643 0.000358 -0.217904 -0.556432 -0.036152 0.796574 0.137087 0.756445 -0.164283 0.202669 0.198503 -0.388331 -0.495741 -0.458624 -0.015951 0.085432 0.510474 0.237151 0.650556 -0.302515 0.060311 0.072878 0.164437 0.143513 -0.140789 -0.193579 -0.338390 0.224059 -0.093396 -0.530534 0.018591 0.608840
